//<![CDATA[

// a few things don't have var in front of them - they update already existing variables the game needs
lanesSide = 3;
patchesAhead = 50;
patchesBehind = 10;
trainIterations = 500000;

var num_inputs = (lanesSide * 2 + 1) * (patchesAhead + patchesBehind);/**/
var num_actions = 5;/**/
var temporal_window = 0;
var network_size = num_inputs * temporal_window + num_actions * temporal_window + num_inputs;

var layer_defs = [];
layer_defs.push({
    type: 'input',
    out_sx: 1,
    out_sy: 1,
    out_depth: network_size
});
layer_defs.push({
    type: 'fc',
    num_neurons: 30,
    activation: 'tanh'
});
layer_defs.push({
    type: 'fc',
    num_neurons: 20,
    activation: 'tanh'
});
layer_defs.push({
    type: 'fc',
    num_neurons: 20,
    activation: 'tanh'
});
layer_defs.push({
    type: 'fc',
    num_neurons: 20,
    activation: 'tanh'
});
layer_defs.push({
    type: 'regression',
    num_neurons: num_actions
});

var tdtrainer_options = {
    learning_rate: 0.01,
    momentum: 0.0,
    batch_size: 128,
    l2_decay: 0.01
};

var opt = {};
opt.temporal_window = temporal_window;
opt.experience_size = 100000;
opt.start_learn_threshold = 50000;
opt.gamma = 0.9;
opt.learning_steps_total = 500000;
opt.learning_steps_burnin = 1000;
opt.epsilon_min = 0.0;
opt.epsilon_test_time = 0.0;
opt.layer_defs = layer_defs;
opt.tdtrainer_options = tdtrainer_options;

brain = new deepqlearn.Brain(num_inputs, num_actions, opt);

learn = function (state, lastReward) {
    brain.backward(lastReward);
    var action = brain.forward(state);

    draw_net();
    draw_stats();

    return action;
}/**/

//]]>

/*###########*/
if (brain) {
brain.value_net.fromJSON({"layers":[{"out_depth":420,"out_sx":1,"out_sy":1,"layer_type":"input"},{"out_depth":30,"out_sx":1,"out_sy":1,"layer_type":"fc","num_inputs":420,"l1_decay_mul":0,"l2_decay_mul":1,"filters":[{"sx":1,"sy":1,"depth":420,"w":{"0":0.3847332111464327,"1":0.2943417124895351,"2":0.13817858341393457,"3":-0.2006616691203345,"4":0.025664513593948342,"5":0.028761059809667932,"6":0.040528463359326715,"7":-0.10899379080718288,"8":0.028533976377347416,"9":0.16051662178616863,"10":-0.12563042477737837,"11":0.13045049521936547,"12":0.18937250544914275,"13":0.1365748405353024,"14":-0.15137566432954846,"15":-0.07919813158766996,"16":0.02907466807052329,"17":-0.027614604719201314,"18":0.14181064028694185,"19":0.2893981899780071,"20":-0.038513166614169966,"21":-0.027742630845608164,"22":-0.017438356129545765,"23":0.019985037258986364,"24":-0.024169949052296753,"25":0.08428421048340305,"26":0.056139529446904216,"27":-0.11426012888578328,"28":-0.0029069897742680633,"29":0.04483254939347436,"30":-0.026121215048634825,"31":-0.008060663702090375,"32":0.08247823328264814,"33":0.20335538774739703,"34":0.06067940350912413,"35":0.12578012763180135,"36":-0.10764748594908069,"37":0.1313076628669469,"38":0.01030458321627929,"39":0.033116760650225716,"40":0.3359573134768145,"41":0.026772028005130115,"42":0.08486780861583626,"43":0.06097953689257891,"44":0.04720152022841981,"45":-0.026865858231554,"46":0.055991573493610704,"47":0.16040521238618247,"48":0.09075174297624776,"49":0.05570656712938992,"50":0.03563439159130319,"51":0.09385868823432021,"52":-0.04867966610645173,"53":-0.051981413708466144,"54":0.03166684902587428,"55":-0.0616576712416411,"56":0.05924592231762387,"57":-0.006200517333891932,"58":-0.19505003825878994,"59":0.04743755509633205,"60":0.1609345313526869,"61":0.008503387191135992,"62":-0.08750713242542196,"63":0.1562081060543007,"64":0.04275248328889277,"65":-0.0005591749331807594,"66":-0.015923456131983565,"67":0.002357341894134699,"68":-0.0896358623726638,"69":-0.1524863603371081,"70":0.00810148297191886,"71":-0.06409023522866437,"72":-0.1646106740428889,"73":-0.19832948223798336,"74":0.02825381264452559,"75":-0.17369509011211273,"76":0.11278495027906461,"77":-0.048877678196186145,"78":-0.05945591115076501,"79":-0.03228494968858417,"80":-0.019034133762801258,"81":-0.04678562260755171,"82":-0.1157943566663227,"83":-0.018631354990831912,"84":-0.14400855738196744,"85":-0.031138966513450245,"86":0.1806897679429183,"87":-0.1052242172925004,"88":0.034980196681755685,"89":-0.0920080747934426,"90":-0.06348353250394197,"91":-0.23731402856958453,"92":-0.005205403197326661,"93":-0.04849953460869889,"94":-0.015949702901844925,"95":0.1763362945267873,"96":-0.03308513003223403,"97":-0.013291952172566016,"98":-0.06202710587237459,"99":0.04024993473980476,"100":-0.005894865944878979,"101":-0.002181427549256721,"102":0.17777311059464998,"103":0.017173947938367087,"104":-0.2473879753040351,"105":0.1563034306683619,"106":-0.0010070658031032626,"107":-0.16850156109477438,"108":0.13489502266908,"109":0.23112556646662846,"110":0.15065543459127156,"111":0.01750681902243847,"112":-0.04920476451652584,"113":0.10492014814430405,"114":0.013139377597830473,"115":0.11629127543545432,"116":0.026475406065600084,"117":0.04019043509322551,"118":-0.03419654735616333,"119":0.07614793682730059,"120":-0.057231034080035666,"121":0.12627532269751923,"122":-0.21701886792957722,"123":0.17559560442773958,"124":-0.05387751152327381,"125":-0.01866625153833891,"126":-0.11466132461462676,"127":-0.18760562461731037,"128":-0.15741075169114266,"129":-0.1877962843382749,"130":0.08657473544528642,"131":-0.03233338566892233,"132":-0.05578956859053028,"133":-0.25359242595010806,"134":-0.02517033714997065,"135":-0.0894274282418411,"136":-0.2024833632387662,"137":0.020633112138915576,"138":-0.0783617387539556,"139":-0.10728444182851454,"140":0.01340098314472806,"141":0.007321095127937786,"142":-0.04995360628954391,"143":-0.100827449156212,"144":0.013145357124754835,"145":-0.0740238651368447,"146":-0.11600583805142314,"147":0.03951718318534317,"148":0.06612382112863568,"149":0.031814027293791666,"150":-0.11846253002836042,"151":0.008678794733119988,"152":-0.12590789584411552,"153":-0.055212611769106884,"154":0.18936125916220453,"155":0.11286466285980343,"156":-0.2292200853664593,"157":-0.04517759401385465,"158":-0.1436374432136357,"159":0.17441088046904665,"160":-0.058376429347795945,"161":0.0506486323393628,"162":-0.12172062678368875,"163":-0.21338355857462413,"164":-0.020721408585730097,"165":0.029517040125104376,"166":-0.007772562440743013,"167":0.05303503041013587,"168":-0.027251538342717544,"169":-0.15143197355038268,"170":-0.08112918551583959,"171":-0.2083206255781422,"172":0.14213978144240488,"173":0.1554511312382018,"174":0.12472919285380994,"175":-0.03279933513371684,"176":-0.05222504689527182,"177":-0.22421547174684733,"178":-0.1746571361583982,"179":-0.024322842546886384,"180":0.04289480469664384,"181":0.18574541602950517,"182":0.026409918029482195,"183":-0.17439743661833718,"184":0.09844567220674878,"185":-0.05232047447378166,"186":0.10164038209800175,"187":-0.054894406359706126,"188":-0.013886793284909,"189":-0.023215313735603364,"190":0.11165705339891552,"191":0.1577061157463001,"192":0.011293141527269507,"193":0.013436630779733793,"194":-0.06677391931280799,"195":0.10661278886456076,"196":0.011809511747363154,"197":-0.02622112061266092,"198":-0.032507270349400055,"199":-0.17852417122931735,"200":-0.059963378104770794,"201":-0.17254948513708546,"202":-0.15901841738730554,"203":-0.05837906648511733,"204":-0.020319980393346045,"205":-0.05909093109150834,"206":-0.1325076816713824,"207":-0.1227526269013966,"208":-0.09280407780078163,"209":-0.24727441447584245,"210":0.015196701795795634,"211":-0.06155147094494022,"212":-0.1364659906514173,"213":-0.2061944344019316,"214":0.11954777831821081,"215":-0.030345635415321464,"216":-0.03464657393915986,"217":0.09786139106793888,"218":-0.012805937770819693,"219":0.10606917174884682,"220":-0.22942996066194365,"221":-0.0710255468844142,"222":0.15598266553795048,"223":-0.021691618787022613,"224":-0.10552106369514049,"225":-0.0333081371162874,"226":-0.16821900115935834,"227":-0.227509279147607,"228":0.08699353852847475,"229":0.026606082788169606,"230":0.16565925205277857,"231":0.10913382804986102,"232":-0.19324017226056633,"233":-0.14710613062113181,"234":-0.12458656215054846,"235":-0.0077041396938950435,"236":-0.08494551356694652,"237":0.0890019198259094,"238":-0.0583944755239281,"239":0.10277367280450439,"240":-0.1708856026569121,"241":-0.29666106421253796,"242":-0.0005157216727757026,"243":-0.27489935680038396,"244":-0.32244530714720065,"245":-0.07899887966484813,"246":-0.054814883172442944,"247":-0.10672425060619063,"248":0.02401301628840344,"249":0.15446671152094543,"250":-0.05116666550605967,"251":-0.15537056825222353,"252":-0.05855148135081864,"253":-0.055479461162487274,"254":0.12780972316825745,"255":-0.07796380791513796,"256":0.2154665762645387,"257":-0.07829004517970477,"258":-0.040931905099160316,"259":-0.13900982118841654,"260":-0.09417142021257179,"261":0.056850237884270766,"262":-0.22607467514399118,"263":0.21523160701376107,"264":0.054310754383888195,"265":0.048015225349946844,"266":0.051936953113411136,"267":0.033788550979819,"268":0.06111418343528407,"269":-0.16217382674374184,"270":0.22738191492638582,"271":0.08093929182650411,"272":0.06651428110539237,"273":0.03982503387263562,"274":-0.010638341033037397,"275":-0.004246933484848399,"276":0.09388719582037978,"277":-0.13773915418353572,"278":-0.2350031074707818,"279":-0.10679712499008732,"280":-0.08550772567231074,"281":0.18690436819308762,"282":-0.022152012665970285,"283":0.5968662304218784,"284":-0.001351143232167492,"285":-0.06040156733172151,"286":-0.179760888196633,"287":-0.03895079461991104,"288":0.14158688845396625,"289":-0.02509817422822299,"290":1.2012614659600598,"291":0.1626672862481976,"292":0.050210108584997935,"293":-0.09609653604143362,"294":0.00846206621869064,"295":0.0184124490433153,"296":0.1771332730209172,"297":0.6256242620068475,"298":0.033455752491726505,"299":0.13111730791435347,"300":-0.12250536727269268,"301":0.030058898910739016,"302":0.04822234197217826,"303":-0.21419802495082182,"304":1.4426955084647926,"305":-0.46741319563806993,"306":0.07155752379141261,"307":0.027650284036029187,"308":0.08251348374388967,"309":0.14269018721053583,"310":-0.23607902420510413,"311":1.8205981683438817,"312":-0.21952370207089358,"313":-0.12078213379050054,"314":-0.03052004511857968,"315":0.04032935336617793,"316":-0.13225545041875925,"317":-0.04155988235557969,"318":1.9313290423280598,"319":-0.3594323548384566,"320":0.01290445972552947,"321":0.02915183601822447,"322":-0.04594076732068672,"323":0.05350363546614537,"324":0.08749559342769345,"325":2.612198502854117,"326":-0.19073156163789456,"327":0.064369090863085,"328":0.01878635367559234,"329":-0.03566432440467683,"330":0.02023662389509305,"331":0.5060320095487243,"332":0.947897166112047,"333":0.15444842736624678,"334":0.046765746799777394,"335":0.12330992789598672,"336":0.017902777317156598,"337":-0.032907457714360044,"338":0.28130875870102967,"339":0.2021568789383763,"340":-0.2036654114199389,"341":0.08938195142741583,"342":0.06734799088323647,"343":-0.1100722258240695,"344":0.09493494325114532,"345":0.35207564410160463,"346":-0.36317799678251483,"347":-0.6686166225872568,"348":0.09758017059961464,"349":-0.10011246019072177,"350":-0.1008366830376881,"351":-0.2548112213567081,"352":0.004902873684629634,"353":-0.11642770362645055,"354":-0.7151652777633666,"355":-0.08639761737988187,"356":0.04413439848943563,"357":-0.08115558863016616,"358":0.0257965690455166,"359":0.02721364387609417,"360":-0.023342467787553178,"361":-0.35785269183734497,"362":-0.018764118926975357,"363":0.09491734686907044,"364":0.035284602305556086,"365":-0.04185531247442242,"366":0.12502984078720353,"367":-0.046628106796110146,"368":-0.45713304701316027,"369":0.03702440726373839,"370":0.011166193569123017,"371":0.14554758698334203,"372":0.18251244715160062,"373":0.04454297568732162,"374":-0.04594687358279464,"375":-0.2315012423648618,"376":-0.013043771256650813,"377":0.05773320749255259,"378":-0.053197581530103594,"379":0.06550502750821793,"380":0.07939951292334496,"381":-0.40499699317248555,"382":-0.302580034216875,"383":-0.12018604166215496,"384":0.09756558510152562,"385":-0.05278834537931973,"386":-0.15703750443210387,"387":-0.0033438405624449693,"388":-0.1138444081425145,"389":-0.2646273215425431,"390":0.025256089086241214,"391":0.010416569263589028,"392":-0.11099048027270182,"393":-0.2423101309583487,"394":-0.09394695505004308,"395":-0.09853893810364643,"396":-0.1998254612126161,"397":0.10314604825017268,"398":0.08730358355734964,"399":0.14399316504745466,"400":0.07963093043656082,"401":-0.030292994625200874,"402":-0.07213605305855023,"403":0.07988998391744469,"404":0.04673192127489934,"405":-0.016721849091057683,"406":0.15499382606305973,"407":0.1730028687479555,"408":-0.010791706416681318,"409":-0.08963103452317489,"410":0.17550120117791357,"411":-0.0798840186737133,"412":0.0989234684889137,"413":0.08829694986678485,"414":-0.15855912090793256,"415":-0.004625845323146272,"416":-0.348807616107136,"417":0.0021195353444627926,"418":0.1927251143277738,"419":0.028774303355928038}},{"sx":1,"sy":1,"depth":420,"w":{"0":0.06412583750801773,"1":0.160011664844167,"2":0.22146373941494174,"3":0.20027813702477235,"4":0.22767531852169678,"5":0.21413164098086399,"6":0.06107135178702438,"7":0.014782889706402168,"8":-0.04006713960193009,"9":0.07016974954900622,"10":-0.05017246284678077,"11":-0.004571678489406952,"12":-0.012547174382154393,"13":-0.1118082813880084,"14":0.058056093066954535,"15":-0.044984056834482526,"16":0.0876508013691436,"17":-0.01485901533040625,"18":0.05657989282042399,"19":-0.1621187116427317,"20":0.02713147203684499,"21":-0.0422597741771124,"22":-0.059056320276316764,"23":-0.022547666107267373,"24":-0.12228244995300568,"25":0.005282302586405915,"26":0.056092541600161146,"27":-0.03344918906937808,"28":-0.03118141270957304,"29":0.08567053882523507,"30":0.055170037590688316,"31":0.14610811032370286,"32":0.20150469218603362,"33":0.13304741973074433,"34":0.12294504733676889,"35":0.030781395425545158,"36":0.05562944451167434,"37":0.09061194357242124,"38":0.0729415319124619,"39":0.03536217653198008,"40":-0.04501857969301158,"41":-0.00037698475955742967,"42":-0.08290493363166275,"43":-0.05169420252072402,"44":0.109935965658348,"45":-0.15994624796194729,"46":-0.14652802439550627,"47":0.04305308252705526,"48":-0.01521178666958973,"49":0.05176875485120626,"50":0.009948358047003005,"51":-0.03499425395652084,"52":-0.18857556732361735,"53":0.08576885310226771,"54":-0.03605472991408076,"55":-0.019764610725292807,"56":0.08893358108820942,"57":-0.017994651767168347,"58":0.1637299338844099,"59":0.08625797118448582,"60":0.0626757052281979,"61":0.0021690865571239626,"62":0.21354023052844998,"63":0.030835788832555278,"64":-0.139314594577653,"65":-0.08890252820974058,"66":-0.021070205790331992,"67":0.11193473972627797,"68":-0.13557836240246052,"69":-0.06274435622670232,"70":-0.030730443932709912,"71":0.00045240841796143153,"72":-0.01740272453128677,"73":-0.16590080165127138,"74":-0.19588859031315864,"75":0.0713858964350243,"76":-0.01335167093016197,"77":-0.04599865221876337,"78":-0.1126848233508675,"79":0.07157831874637759,"80":-0.19526043906577514,"81":-0.04027944471919327,"82":0.03709338968197047,"83":0.01669022898499041,"84":0.10019157361627427,"85":0.0069853205572983626,"86":-0.018442940360072487,"87":-0.11505097523291244,"88":0.09054005102298396,"89":0.036708120670189984,"90":0.07289816973479163,"91":0.01193455319262777,"92":-0.030527761572633358,"93":-0.05555560083823749,"94":-0.07726269192758503,"95":-0.019071691961777597,"96":-0.03633131421083442,"97":-0.047114001748226206,"98":0.02480366432950108,"99":-0.06331060156512432,"100":-0.053835404000757044,"101":-0.08977086240547966,"102":-0.17089862867685984,"103":-0.12659353846913848,"104":-0.06899936775539257,"105":-0.06411923095687118,"106":-0.06962710340595533,"107":-0.029740816841253216,"108":-0.1686486954513553,"109":-0.10169597602264871,"110":0.022958341444984712,"111":0.07859572335963809,"112":-0.01754691832387127,"113":0.08927186684096725,"114":-0.09050823845600633,"115":-0.15386088558938932,"116":-0.08383623296594932,"117":-0.03218156952361368,"118":-0.0003007207069932067,"119":-0.058925202083946804,"120":-0.07248362470427884,"121":0.016344234850339166,"122":-0.10620255065125964,"123":-0.11995570917989883,"124":-0.0931860881202463,"125":0.09392771398079106,"126":0.007670228510113237,"127":0.016964471477659518,"128":-0.19607344730418444,"129":-0.15774600349388726,"130":-0.15903820564848775,"131":-0.09947713658465468,"132":-0.06157227683043866,"133":0.027415025442328073,"134":-0.0922884359671962,"135":-0.12652155060772488,"136":-0.342294072505799,"137":-0.15044932546420095,"138":-0.10926617849815437,"139":0.03926949333699859,"140":-0.08420276789624848,"141":-0.05613128952207192,"142":-0.03878315665168533,"143":-0.14550029116339075,"144":-0.16833468688682554,"145":-0.004695933682601174,"146":-0.022512091440228137,"147":0.04843862043520862,"148":-0.039504983074923165,"149":-0.10930238865723768,"150":-0.1948316330510659,"151":-0.06015824048711477,"152":0.03879398353714014,"153":-0.028790154805901604,"154":0.0839899190702077,"155":0.014148172836265047,"156":-0.22485416870325828,"157":-0.41789286733331976,"158":-0.1233502075062729,"159":-0.14901417215563698,"160":0.13875270668995782,"161":-0.10230932527847286,"162":-0.052619396163897374,"163":-0.1697643203123837,"164":-0.3633777645450084,"165":-0.10683227137362,"166":-0.10177121076392995,"167":-0.0636750064828117,"168":-0.031224548597207382,"169":-0.10558914035933231,"170":-0.09863756369093152,"171":-0.2356943135044013,"172":-0.0663865184168908,"173":0.056758195686722426,"174":-0.07123310365084207,"175":0.06048858951885009,"176":-0.033341820887542555,"177":-0.14285244328250613,"178":-0.34462445625409904,"179":-0.2043153786126478,"180":-0.0020746213045254613,"181":0.12022670276009863,"182":0.05704449925089448,"183":-0.03918553715608106,"184":-0.05905729393950631,"185":-0.4472800146495227,"186":-0.13729028595607135,"187":0.006654906281358765,"188":0.09727555189781131,"189":-0.02651896005100909,"190":-0.05719366353079282,"191":-0.24753683084027298,"192":-0.3774680788849895,"193":-0.02222147981100655,"194":-0.004557461030326293,"195":-0.010701077917165186,"196":-0.061066506391196096,"197":0.03291675051907209,"198":-0.10937376551022812,"199":-0.5072776129994888,"200":-0.12322182775730994,"201":-0.10394968637086048,"202":0.04893498706577398,"203":-0.02088536602699019,"204":-0.03052811113599884,"205":-0.0023677922183500235,"206":-0.48215950321185924,"207":-0.14884555968507301,"208":0.0244306932849863,"209":-0.043774760888428896,"210":0.05844639428592481,"211":0.040110946747609705,"212":-0.17444787705241363,"213":-0.5727756753329322,"214":-0.142097255728403,"215":0.09489593249135446,"216":0.027767577333676487,"217":0.10097888756865503,"218":0.025460661787496588,"219":-0.1493367290039375,"220":-0.5751468101804234,"221":-0.12636270464992796,"222":-0.03545420020256833,"223":-0.011654727978606403,"224":-0.11742667967071674,"225":-0.10981289707643863,"226":-0.04939941092110012,"227":-0.7225098023347832,"228":-0.24501330544793468,"229":-0.14666848400564303,"230":-0.06280919050472948,"231":-0.05240546735240726,"232":-0.03602602847638684,"233":-0.15697559498679473,"234":-0.6560945458222999,"235":-0.1383376324688112,"236":0.048245568190827856,"237":-0.08108130011321171,"238":-0.04261840351795824,"239":0.05909716337075956,"240":-0.042490429941079086,"241":-0.815474031084496,"242":-0.08723044445187811,"243":0.013150300207890347,"244":0.004576791591155326,"245":-0.0032632148188287725,"246":0.053015917503010046,"247":-0.08543791314045403,"248":-0.8161915395906201,"249":-0.023744693631994076,"250":0.05675833553245546,"251":-0.006072595157993409,"252":0.02902481850296656,"253":-0.047320474421310696,"254":-0.22157838177930186,"255":-0.9157145603771891,"256":-0.15611450512937644,"257":-0.010835188533394572,"258":-0.07094314486207359,"259":-0.034236972830823005,"260":0.09230746631279635,"261":-0.0930751194870614,"262":-0.836885862350381,"263":-0.2079923560149552,"264":-0.03793153258063774,"265":-0.027287992925151144,"266":-0.14967560040091213,"267":-0.019542171065761903,"268":0.01569058908917302,"269":-1.2473816709967593,"270":-0.15021410397072557,"271":0.014388836565517977,"272":0.13046084845329525,"273":-0.02281883567689243,"274":0.06607003545415494,"275":0.03056173389835713,"276":-1.2573415514821165,"277":0.15979847300972344,"278":0.12813559324569676,"279":-0.01703022920209565,"280":0.04320759098027584,"281":-0.012320534375665926,"282":-0.10742842786779094,"283":-1.3267059915545159,"284":-0.02616025758568412,"285":0.00360562331601753,"286":0.0166961658265931,"287":-0.052935791875607416,"288":0.1221920845129415,"289":-0.10894437080991792,"290":-1.1053106274218054,"291":-0.011099010076951259,"292":0.016079654241677663,"293":-0.04137292117281199,"294":-0.024082179998414464,"295":-0.03776067776921742,"296":0.14593833323020136,"297":-1.308154063705357,"298":-0.10532618463315704,"299":0.0831179900322917,"300":0.0114464894685871,"301":-0.04349373092000707,"302":0.08130049844558729,"303":0.12116959497581493,"304":-1.3355690882271067,"305":0.2165677033941175,"306":-0.014354689054447856,"307":-0.001227381478154827,"308":0.043974421641446146,"309":-0.030168726951840953,"310":0.20010638682002982,"311":-1.0915765920300216,"312":0.19202923802575492,"313":0.18430994033668205,"314":0.06097918215195617,"315":0.09327832388963267,"316":0.15215987970176378,"317":0.08369998113884279,"318":-0.8355942227180402,"319":0.11784547731226784,"320":-0.06987615286963589,"321":-0.06718146654412828,"322":-0.03225479813158572,"323":0.05615689619135202,"324":0.1436728850198063,"325":0.8486567017710877,"326":0.25346935269706417,"327":-0.00696299614561521,"328":-0.022553392498492655,"329":-0.0314510905879199,"330":-0.027988619688792394,"331":0.2744715256260311,"332":2.2274437548453516,"333":0.11350662046275793,"334":0.02192656309518742,"335":0.06414948929814947,"336":-0.028527887347805893,"337":0.033123612833469145,"338":0.1082120701763861,"339":2.677841514912857,"340":0.210398098705434,"341":0.013001409114739987,"342":-0.0021507502344520297,"343":0.02005866570612473,"344":0.0006124876656384714,"345":0.15042303968240217,"346":2.843778957017921,"347":0.14381727146327994,"348":-0.05085815418326412,"349":-0.006474076404905854,"350":0.01760349646203947,"351":0.01715288863510725,"352":0.15552217147505143,"353":0.06901139425381762,"354":0.195779107028036,"355":0.06281543770337848,"356":-0.08134732098326544,"357":-0.0375297161459768,"358":0.14546612624779073,"359":0.04508023842143811,"360":0.025945643705098068,"361":0.03896356086732861,"362":0.045457292809944996,"363":-0.010288779745190779,"364":-0.06642540863950021,"365":0.07694475780122355,"366":0.06177963830362502,"367":0.04750249676691104,"368":0.0770115340119747,"369":-0.024131823336231345,"370":0.05059841574123207,"371":-0.04606125089343218,"372":-0.11448170142486112,"373":0.0540120959853089,"374":0.06885387124306992,"375":0.09338510396456007,"376":-0.14237343092654592,"377":-0.02870289360854903,"378":0.18416977897482445,"379":-0.013795407293105182,"380":-0.0525772868776871,"381":2.7799123391469815,"382":0.19690907204425218,"383":0.049292781318237895,"384":0.0035356412101327085,"385":0.007910945298083177,"386":0.05751959242430902,"387":-0.033605600136741284,"388":2.3739821536438424,"389":0.12096676381449398,"390":0.036669547835316375,"391":0.08699584599177326,"392":0.09634302784678957,"393":0.1889136197415079,"394":0.04371317540187144,"395":1.8919136923917441,"396":0.03192435982403591,"397":0.11225264059585657,"398":0.02045308841027158,"399":-0.0036172606209530383,"400":-0.11591058994141182,"401":0.04489162616216756,"402":0.309408618713703,"403":0.04250201606465526,"404":-0.04485304808875461,"405":0.004473353995415612,"406":0.013353891791249352,"407":-0.008927437203226248,"408":-0.03232527988044084,"409":0.03162050596144519,"410":-0.013369716841613668,"411":-0.010925458868703114,"412":-0.164258537990247,"413":0.06758163968256597,"414":-0.0461783930202765,"415":-0.009062691500662322,"416":-0.025617038179665264,"417":0.10501587892889497,"418":-0.04501535203905708,"419":0.054435684634767945}},{"sx":1,"sy":1,"depth":420,"w":{"0":-0.19356783849324086,"1":-0.024253635722079735,"2":-0.007852324415645644,"3":-0.10509051420817962,"4":-0.15964137150030883,"5":-0.02296776013548927,"6":0.038735297883033454,"7":-0.16504788001303572,"8":0.05062689587270454,"9":-0.08022008011003265,"10":0.05607216570354503,"11":-0.12486244082834344,"12":-0.07997515100798984,"13":0.014466803938455924,"14":-0.14982412997305958,"15":0.02263046484692721,"16":0.000019698071336323337,"17":0.051662007100625185,"18":-0.11116733076374041,"19":-0.0537697215558553,"20":-0.05198227546877884,"21":-0.044130775420771304,"22":-0.10945440182293298,"23":0.10003515151674507,"24":0.0665440275201222,"25":-0.05587922678465281,"26":0.007176935159759724,"27":0.012059575276964336,"28":-0.1927926099157159,"29":-0.13811685073234578,"30":0.0104198839723825,"31":0.037550115740514346,"32":-0.11884632329203468,"33":-0.07895611792172468,"34":0.04036521616368644,"35":-0.10160856772343882,"36":-0.16603912065502555,"37":0.16175189938665865,"38":-0.029971901868628255,"39":-0.10662415370094677,"40":0.00795780420263446,"41":0.025316800443555502,"42":-0.08586215520501511,"43":-0.001022921906521713,"44":0.10881070191902915,"45":-0.0438367051582893,"46":-0.09656963316257047,"47":-0.04194800202428263,"48":0.01676911256364912,"49":-0.03998492276600708,"50":-0.050848105215284004,"51":0.14195939839630461,"52":0.047487574916011084,"53":-0.0766909793061896,"54":0.007910604529994094,"55":0.004269518303382908,"56":0.03623115755640316,"57":0.10244241286832259,"58":0.2301489204068649,"59":0.0973930772753584,"60":-0.06780127664464441,"61":0.024444346939073137,"62":-0.029745892265973073,"63":0.04196832834747324,"64":0.08281610977835548,"65":0.1893994455651374,"66":0.0009262738251440363,"67":-0.12754840864084446,"68":0.03780679951710586,"69":0.010430566180617778,"70":0.03984233599477508,"71":0.011042416810974549,"72":0.20486826358583698,"73":0.06299063530174884,"74":-0.04618776024425267,"75":-0.051827256460762944,"76":0.06668979841892715,"77":0.09964585996245133,"78":0.05979406146543257,"79":0.2105531441322354,"80":-0.011147830715376781,"81":-0.17748824029327087,"82":-0.05018413058563058,"83":0.025207338456296493,"84":0.05350985280348187,"85":0.06257004432321953,"86":0.24524561382366858,"87":0.03520831152315914,"88":-0.05169616848595298,"89":-0.010790322282685637,"90":-0.05381097559403284,"91":0.006293789171020787,"92":0.11724565983127007,"93":0.21447453386330992,"94":-0.057024598182111606,"95":-0.04364044237902192,"96":-0.015468988864883099,"97":0.015228115059723237,"98":-0.03974112189316744,"99":0.15784697096255162,"100":0.05457019093472675,"101":-0.0480554224237728,"102":-0.10306313390484971,"103":-0.026959054148068182,"104":-0.04147602123371382,"105":-0.027770612832134577,"106":0.21118341337838267,"107":0.10918210132527237,"108":-0.06669896313448218,"109":-0.12165760373997725,"110":0.0020642178599343136,"111":-0.003624056104704487,"112":-0.04914804342191988,"113":0.04207737259069937,"114":0.16864393456601176,"115":0.0085630531581949,"116":-0.07422234454949803,"117":-0.024365247098549613,"118":-0.012209172625992915,"119":0.03613818843533541,"120":0.09387589748334471,"121":0.10704432816599889,"122":-0.024605043476168677,"123":-0.017710798807532173,"124":0.051389365044758925,"125":-0.01134444726104561,"126":0.034806248169273274,"127":0.119568107990062,"128":0.18915684247397047,"129":-0.061809992122621976,"130":-0.0719043116092592,"131":-0.034400534633719414,"132":0.04068145041231283,"133":0.04571249647164562,"134":-0.028118403653526473,"135":0.14528390351565582,"136":-0.06663968364086298,"137":-0.13132350448888033,"138":-0.08271276532857,"139":-0.058720236783015266,"140":-0.01484121155396188,"141":-0.08940516830248957,"142":0.18117390286126936,"143":-0.046345839184447644,"144":-0.0718503940879363,"145":-0.07783108249201251,"146":-0.020474030587420505,"147":0.11964235524897643,"148":-0.0630438937988112,"149":0.07998636896454739,"150":0.09915683675825848,"151":-0.07229995300310639,"152":-0.08731577789450352,"153":0.05448761121596668,"154":-0.10245142086384597,"155":0.0393621794096797,"156":-0.09877199928580284,"157":0.1287391595369507,"158":-0.11639573009709608,"159":-0.0849385613538467,"160":-0.04445053753907695,"161":-0.03678198585003979,"162":-0.09988684843822068,"163":-0.07544787535188947,"164":0.12838226020963714,"165":-0.02122589519974521,"166":-0.063441395571371,"167":0.07114753009715645,"168":-0.11990753928130873,"169":-0.06982202491787126,"170":-0.15985099399545386,"171":0.1994280394336342,"172":-0.0892464655462707,"173":-0.07538498478007652,"174":0.0021633899119915096,"175":0.01935704692615465,"176":0.023732678776720646,"177":-0.04417490729670106,"178":0.20446899642414354,"179":-0.09817386895822518,"180":0.025369278350882565,"181":0.046556201381845116,"182":-0.03882080733624227,"183":-0.0656754699167171,"184":-0.0751929895950994,"185":-0.0005963018755131359,"186":-0.10934441499671671,"187":-0.01373166903956734,"188":0.010485655969018827,"189":0.0862369676822803,"190":-0.0441517636038165,"191":0.02545052754952541,"192":-0.015113640721195592,"193":-0.06440541125136387,"194":-0.04460952450187419,"195":0.04363132455626039,"196":0.0813824793028416,"197":-0.052857193538638984,"198":-0.07727809335054861,"199":0.07853454653554943,"200":-0.03539648621734106,"201":-0.047756489811135776,"202":-0.0771580060041739,"203":0.09867438704992419,"204":-0.04067844777176753,"205":-0.1193891364210245,"206":0.10723636122755305,"207":-0.047198168720246375,"208":-0.027181706283875905,"209":-0.002941732792570834,"210":0.020682402711538796,"211":0.0865226862615663,"212":-0.021106850496968782,"213":0.09909456434188542,"214":-0.08762248526516804,"215":0.03953248577255637,"216":-0.09208417172588196,"217":0.07893434089570561,"218":0.039573997847059866,"219":-0.025875857060625958,"220":-0.05759594219840726,"221":0.037349077538025,"222":0.06881797933524371,"223":-0.04391283173731428,"224":0.20257131771064807,"225":-0.039829920825036044,"226":0.04919032590460263,"227":-0.18311275257265666,"228":-0.11918904418594119,"229":0.028842977679032183,"230":-0.040241559186874123,"231":-0.022182700475440097,"232":0.02462642413758201,"233":0.20277450338394218,"234":-0.039262645250506566,"235":-0.07106511949823881,"236":0.024868773217516457,"237":-0.007450717584144479,"238":0.0626832802869085,"239":-0.09343594253184338,"240":0.2143663971491613,"241":-0.18751112853880178,"242":-0.072907094238042,"243":-0.040519965010796424,"244":-0.07236409991104961,"245":0.06262778589840028,"246":0.055287676409822656,"247":0.056591306399844894,"248":-0.27935554380099886,"249":-0.06360863478047792,"250":-0.005380336707874317,"251":-0.018717291720540055,"252":0.03891659218065105,"253":0.005543623790657833,"254":0.04019966575258633,"255":-0.11885496232174941,"256":-0.06856395807776043,"257":-0.0027731800767038014,"258":-0.00767723638961247,"259":0.11784460334328703,"260":0.09423424434947755,"261":-0.04994054342715363,"262":-0.19676457393810068,"263":-0.1347542464225556,"264":-0.0017810313805542595,"265":0.014501676353566,"266":0.12778962629931326,"267":0.17823577490168022,"268":-0.0016366878985105094,"269":-0.012666051806545805,"270":-0.0505335882203449,"271":0.015489931612632974,"272":-0.021525334197207355,"273":0.09427864875740989,"274":0.2516366940731925,"275":-0.038222666573862224,"276":0.05040162935981358,"277":-0.020331565154589108,"278":-0.036731892403286004,"279":-0.009430431699074869,"280":0.0435545021311058,"281":0.06422830478214578,"282":0.03917529202520579,"283":-0.13539982999536923,"284":-0.01986957665616386,"285":-0.012128299270931212,"286":-0.04262484946462809,"287":0.0022992295541864926,"288":0.10978252746106226,"289":0.10121941828681753,"290":-0.08512982352929274,"291":-0.0032326826968010524,"292":0.03519951463710293,"293":0.021228219449168185,"294":-0.06142197140111968,"295":-0.07820588191523171,"296":0.05220775273710534,"297":-0.20705900066003646,"298":-0.05240600906000051,"299":0.0343068924889647,"300":-0.03880485717364125,"301":-0.1187457246089509,"302":-0.07687877622968517,"303":0.1695828967860745,"304":-0.2046010026310414,"305":-0.1040982542038179,"306":-0.10270762580700571,"307":-0.0069840524009312345,"308":-0.05035402964513098,"309":-0.11204732391809666,"310":0.15327427519821302,"311":-0.1583453865877565,"312":-0.05273063389252858,"313":-0.04924521871849664,"314":-0.06552006501424346,"315":-0.15611939361600832,"316":-0.05538986387690763,"317":0.22041338296297255,"318":-0.10342119466978966,"319":-0.13727629661155186,"320":0.024660963739595698,"321":-0.009116162574281488,"322":0.009612390443768968,"323":0.15204862823990437,"324":0.23167054536199297,"325":-0.055568630667050936,"326":-0.11745220025297586,"327":-0.1174506863495946,"328":-0.02818193520376565,"329":0.012325289603264159,"330":0.04740598461717705,"331":0.3726680420138083,"332":-0.09224992913861563,"333":-0.008600300217026353,"334":-0.006490280313505298,"335":0.032265959706703574,"336":0.050729915222497354,"337":0.08806230714433096,"338":0.2531555061264956,"339":-0.12985439951599628,"340":-0.02939785512310899,"341":-0.10017079206938437,"342":0.010704736953812317,"343":0.015474941122497268,"344":-0.08866997655273627,"345":0.2360759642803938,"346":-0.19887211585414558,"347":-0.12216744409992192,"348":-0.0189605782951521,"349":0.011688000382673936,"350":-0.16906643639742427,"351":-0.1031355112645313,"352":0.005299572321941001,"353":0.02081851681463699,"354":-0.1368669271337533,"355":-0.11898439756731946,"356":-0.06391035997418112,"357":-0.12220424577133727,"358":-0.21395496090843613,"359":0.06356041589673765,"360":-0.012689167574466953,"361":-0.11768169822992824,"362":-0.05178625724788194,"363":-0.011087955353115991,"364":0.05735345201256597,"365":-0.228855277725307,"366":-0.0870554282621291,"367":-0.014053511486171528,"368":-0.014135480383010948,"369":-0.06842584737704992,"370":0.002936392762006049,"371":-0.0738019473919319,"372":-0.11134181065626705,"373":-0.24612323956854415,"374":-0.09598617936055093,"375":-0.01337664699318842,"376":-0.07616923648836212,"377":-0.07324525534667707,"378":0.003081484919670023,"379":-0.12202239993508424,"380":-0.1382531540489998,"381":-0.14527452319784578,"382":-0.09198909761979118,"383":-0.00045558376590347656,"384":-0.05237495374771357,"385":-0.08531067964277686,"386":-0.10429985738360892,"387":-0.192886738666913,"388":-0.014392769032277451,"389":-0.08879478025161075,"390":0.03242996782093185,"391":0.0022785449902648965,"392":-0.22469709588507908,"393":0.10674779370032307,"394":-0.03758911999274894,"395":-0.05316995775010119,"396":-0.048590633838805714,"397":-0.09687231714544439,"398":-0.027117235094069814,"399":-0.17643948003924328,"400":-0.128934028948399,"401":-0.020330600776635486,"402":-0.10200652187116896,"403":-0.01630055399762146,"404":0.002775750445609729,"405":-0.027133929126235964,"406":0.024331554810805272,"407":0.06334008683026149,"408":-0.059513770176726453,"409":-0.23080890764248146,"410":-0.1348586845081047,"411":-0.01329663538045747,"412":0.017053397959292303,"413":0.07076241828558065,"414":0.0375503734790748,"415":0.008260172744090901,"416":-0.14369374263224702,"417":-0.09108626872291475,"418":0.005860374408133545,"419":0.016521482877019527}},{"sx":1,"sy":1,"depth":420,"w":{"0":0.3343757942952382,"1":0.03351376659215178,"2":0.04606729850254361,"3":0.06916356719979147,"4":-0.03202207175416496,"5":-0.04075229494768446,"6":-0.0032817892676676396,"7":0.06750120883656413,"8":0.011153291567493893,"9":0.25109417361731184,"10":0.12470286172588399,"11":0.10140989965630147,"12":0.03761820883047627,"13":0.032967914845312904,"14":0.09257057760803883,"15":-0.09642961796059625,"16":0.2822528763326836,"17":0.20082044264549173,"18":-0.02298199820175188,"19":0.15054036085456823,"20":0.08358522639914812,"21":-0.14582855503070888,"22":-0.00463573517292096,"23":0.17763028708554762,"24":0.14195899905214363,"25":0.06606974440404705,"26":0.13510333489271442,"27":-0.10705475588496416,"28":-0.11991375380435973,"29":0.09996966986456497,"30":0.026045810402625415,"31":0.051641343144204516,"32":-0.14753157303844602,"33":0.06510085859288962,"34":0.016575476480034546,"35":-0.07311545776660179,"36":0.09588230531613169,"37":0.09875123954781687,"38":0.03627329073794735,"39":-0.09762664018680207,"40":-0.009896518430800609,"41":-0.11096211463339092,"42":0.009459354947603114,"43":0.10497007977655798,"44":0.10287164793037375,"45":-0.07616811431007371,"46":0.025811457019223393,"47":-0.07045187333958684,"48":0.0970779027952314,"49":0.08812456556260322,"50":-0.0694390848314445,"51":0.008957321355354883,"52":0.1374454422870199,"53":-0.05555361288803999,"54":-0.08063843005491629,"55":0.12555352836591055,"56":0.04670739540331078,"57":-0.018307921239472936,"58":0.036123256469634706,"59":0.1420502810995848,"60":0.06290758025319784,"61":-0.007576598183391689,"62":-0.08188279119466002,"63":0.112086966602036,"64":-0.07393508483165809,"65":0.10687741855857134,"66":0.05883761042147677,"67":0.11952172817749501,"68":0.06551260303143121,"69":0.01927249373460789,"70":0.14370513550229547,"71":0.06901906352774949,"72":-0.00682823398723972,"73":0.09169952570299035,"74":0.10733305325357763,"75":0.05948696381073088,"76":-0.040031917425089346,"77":-0.07679615751778253,"78":-0.17949937457276213,"79":0.03162909860870365,"80":0.029331344159857792,"81":-0.033630467980029895,"82":0.1304254875871288,"83":-0.10150229116779047,"84":-0.12365237258378697,"85":-0.160738050173749,"86":-0.06802344201179052,"87":-0.02947778961726507,"88":-0.11189350456254292,"89":0.0827155795585969,"90":-0.10559460506879212,"91":-0.058804266418428924,"92":0.03405353671152703,"93":-0.22421009122182234,"94":0.046362929498197446,"95":-0.02122626054963914,"96":-0.1500645382289867,"97":-0.002273722795306449,"98":0.04214747976904064,"99":0.02773936218548343,"100":-0.007473440686014239,"101":-0.12050506772345806,"102":0.18487746113594414,"103":0.027311537349254587,"104":-0.049222213196256234,"105":0.09644332585347777,"106":0.07759031749442462,"107":0.014142236883888996,"108":-0.10149389817115845,"109":-0.06362267051058541,"110":-0.14903390559345484,"111":-0.06322089525973716,"112":-0.06404098034986329,"113":0.1507410087750467,"114":0.008591814631123254,"115":-0.054308919590696995,"116":0.11915530804893457,"117":-0.06671854962070807,"118":0.010556479696743306,"119":-0.15620617515803087,"120":0.08358751298758758,"121":0.035832025261774966,"122":-0.046808100895445105,"123":0.03970214090680406,"124":0.04113863786192424,"125":0.08567553117507755,"126":-0.13271457279654839,"127":-0.13759551998330882,"128":-0.03656009119918318,"129":0.037255722413475585,"130":0.09472300824912706,"131":0.06908107341662345,"132":0.055776366330859084,"133":-0.1438688971487537,"134":-0.14525402544387472,"135":0.030657453811028548,"136":0.08179237028810409,"137":0.16188974521046448,"138":-0.03249048881199803,"139":-0.08016108789761464,"140":0.0039593684386239674,"141":0.001406668766243786,"142":-0.08978010472977185,"143":-0.0122112684305639,"144":0.11203954262412011,"145":0.010567588123905132,"146":0.022229160651001063,"147":0.023635249882739375,"148":-0.017191266967261747,"149":-0.043624494126217016,"150":-0.04062194193815839,"151":0.100633336091008,"152":0.12291226980529293,"153":0.04332883115644413,"154":0.058542958208889224,"155":-0.007425396053240795,"156":0.1281333298681006,"157":0.017642816850496096,"158":-0.12323487865882621,"159":0.1240198423820193,"160":-0.013120900663755123,"161":-0.10543682071126677,"162":-0.0843585938504705,"163":0.16988902539617506,"164":0.15837912826683326,"165":-0.08346093247140188,"166":-0.013709363898416234,"167":0.019478484298586504,"168":-0.05038265795806658,"169":-0.11788003540330985,"170":0.26009610823893653,"171":-0.05131165728299015,"172":0.015823717598044223,"173":-0.09089317425989182,"174":-0.10871949337299412,"175":-0.08877775781271645,"176":0.00048326836330065304,"177":-0.004127500984944573,"178":-0.009463426208836077,"179":-0.08119830811541963,"180":-0.13381162628773333,"181":-0.10309780892693951,"182":-0.1723643087434747,"183":0.07761907351681785,"184":-0.016952168840986336,"185":-0.06528127078604141,"186":-0.10905965868952114,"187":-0.04641837561738804,"188":-0.06767453864438172,"189":0.005063943059179387,"190":0.05649060836662681,"191":0.0348958937562469,"192":0.0380206230506907,"193":-0.02301339199535206,"194":-0.01975236928345337,"195":-0.009126315078443775,"196":0.012196524197498056,"197":-0.03477431862542213,"198":0.014071538162903071,"199":0.07915896563235875,"200":0.03574484755113012,"201":0.04275803652090296,"202":0.11373625694860251,"203":-0.16220948167737564,"204":-0.05886434931707725,"205":-0.06239063465960686,"206":0.03557853761409423,"207":0.15395601146022292,"208":0.11215928084717061,"209":0.0405680854700593,"210":-0.08127795908052271,"211":-0.17863376487461471,"212":0.010900651982523263,"213":0.04632434292611199,"214":0.1594016718974362,"215":0.13319087275342056,"216":0.04992674897398035,"217":-0.03821121850442428,"218":0.01624735528279627,"219":-0.04461293543039953,"220":-0.13180376766878868,"221":0.07621971271413648,"222":0.0441607650877238,"223":0.0005347616904500928,"224":0.031233833823125803,"225":0.05886133187699432,"226":0.09565855594055975,"227":0.20138255171693634,"228":0.12806721470302634,"229":0.0494288736613647,"230":-0.06492859437401725,"231":-0.030304377802757843,"232":0.019626049313681938,"233":0.23063475678979561,"234":-0.005930799641440524,"235":0.12186814810769635,"236":0.0077710878892804005,"237":0.0016041980988770388,"238":-0.01442069749243549,"239":0.045128368189188174,"240":0.16911874969794077,"241":-0.1282960533921475,"242":0.07853322373580288,"243":-0.028692540200029645,"244":-0.0839488013412075,"245":0.0035721503471547672,"246":-0.042945127734163396,"247":0.15077767260669245,"248":0.01892628334372131,"249":0.049632750945236614,"250":-0.1265185511507174,"251":-0.09910236182053127,"252":-0.07123869698694128,"253":-0.1094902820366014,"254":0.1300332443714007,"255":0.088831103165704,"256":-0.19379216985988018,"257":0.09922704426628133,"258":-0.008969614305118627,"259":0.03291514652338312,"260":0.015859955772104185,"261":0.18766016694164275,"262":0.22444453153859287,"263":-0.05181374629631431,"264":0.09123254251835994,"265":0.04296071119813563,"266":0.03750428835264452,"267":0.19827215909162016,"268":0.28046973484668664,"269":0.16747367583210424,"270":-0.040698325919055624,"271":-0.05231171463294956,"272":-0.07671676757076158,"273":0.056516075666955386,"274":0.03250309615032906,"275":0.31886760249813556,"276":0.32651875644999745,"277":-0.0196806694911606,"278":-0.013833512201102755,"279":0.018844723330584033,"280":-0.10109526397512116,"281":0.10708491772423138,"282":0.20214800349876721,"283":0.18717069132859132,"284":-0.017471587912468493,"285":0.00018073242210791545,"286":-0.04955789110398055,"287":0.16308418827291427,"288":0.012084350066248877,"289":0.36094270131916995,"290":0.39957974762480636,"291":-0.10945998132054692,"292":-0.01056874382553774,"293":-0.15298613213721524,"294":-0.037633303106763154,"295":-0.0822321453242726,"296":0.46600147941242887,"297":0.1133900602629691,"298":-0.027524873909510736,"299":-0.00621016458239526,"300":-0.17364115167412927,"301":0.01382293311182069,"302":0.023995853419193268,"303":0.10137559834102626,"304":0.06245844170584399,"305":-0.08542824192703817,"306":-0.016011900144342558,"307":-0.1009660235754192,"308":0.12397933667625784,"309":-0.005262736830730933,"310":0.038545961915340064,"311":-0.2779015292260891,"312":-0.21955238823698078,"313":-0.017515963761929574,"314":-0.04286478905293,"315":-0.08546244776223834,"316":-0.01791194351467326,"317":-0.06522742416130067,"318":-0.23193602166431876,"319":-0.1916189695061628,"320":0.038966528570868866,"321":-0.052618077970287995,"322":0.12417474447716187,"323":-0.07642096340475352,"324":-0.33166676290765595,"325":0.6200657153910696,"326":-0.18091773723162255,"327":0.0481948097528893,"328":0.03893163715907035,"329":0.07105796318986438,"330":0.013952105250867534,"331":-0.14314010908175964,"332":0.5908933533061105,"333":-0.16699797573217579,"334":0.014421900321623667,"335":0.0698704099289786,"336":-0.0444843816002554,"337":-0.005394244836309393,"338":-0.4383987098468906,"339":0.7399512506307694,"340":0.10292859171946016,"341":-0.009651355164551364,"342":-0.011522596528951606,"343":-0.0012363081830010713,"344":-0.11964854424485502,"345":-0.9135289561523171,"346":0.6797554520961897,"347":-0.24572293382782634,"348":-0.013982065679197905,"349":-0.004532096014962532,"350":0.022848842084987595,"351":-0.1324412098115278,"352":-0.9103941877107669,"353":-0.30020011405513564,"354":-0.060608087898900126,"355":-0.039627848246897183,"356":0.06640838053582994,"357":-0.00751799569104843,"358":-0.046157896748528146,"359":-0.7319160735946117,"360":-0.28521112855653863,"361":-0.05250613990749038,"362":-0.05385980337801781,"363":0.08445539121993847,"364":-0.03017047992074548,"365":-0.0015074660085856789,"366":-0.4893438342647606,"367":-0.3603277189714291,"368":-0.1638047368079746,"369":0.02419917510751189,"370":0.11102750155835354,"371":0.047380886116912616,"372":0.14293680979343476,"373":-0.6390383219104333,"374":-0.40321604046303505,"375":-0.2091205758674382,"376":-0.024644569792170903,"377":0.12489951336634987,"378":0.041038393353056604,"379":0.08880859804731916,"380":-0.32049289306615575,"381":0.23795713533201124,"382":-0.13757523101665603,"383":-0.08145132139194372,"384":0.17465645224331766,"385":-0.04176377843881254,"386":0.05072669499867026,"387":-0.17664168899891838,"388":-0.22989307062262818,"389":0.00619428616481919,"390":-0.01770378101503127,"391":-0.10030448055794486,"392":-0.03554758202329675,"393":-0.03138301673855792,"394":-0.11604891239017903,"395":-0.5149910343690153,"396":0.028744567078416234,"397":-0.009395839568893408,"398":0.06275850448902089,"399":-0.0982057931664809,"400":-0.042329792738478214,"401":0.1082424343457385,"402":-0.3088147497195486,"403":0.17402220753495495,"404":-0.03450456804183438,"405":0.02656368166546,"406":-0.012931940875227223,"407":0.08291118594957868,"408":0.1991156269955443,"409":-0.10828528236806931,"410":0.22447420578306193,"411":-0.005647231739327989,"412":0.06391553629994319,"413":0.03201415607048504,"414":0.14044621849856978,"415":0.19360741241000315,"416":0.12341527161183333,"417":0.1924523665032878,"418":-0.025114645612543552,"419":0.049474390433239646}},{"sx":1,"sy":1,"depth":420,"w":{"0":0.00641613752995888,"1":0.0009397534046509452,"2":-0.0035270175627254902,"3":0.07722908284775666,"4":0.024393066230180102,"5":-0.0006675694227227419,"6":0.022571030052194973,"7":0.015135912039888035,"8":0.020098935403439024,"9":-0.12083570752536468,"10":-0.0016477958346906522,"11":-0.01102081469739636,"12":-0.10010178844643014,"13":0.009720584160564608,"14":0.010129565194368962,"15":0.020609950513051735,"16":-0.01093850520424305,"17":0.021620845524391138,"18":-0.030457918088239392,"19":0.030274087658928195,"20":0.035583305494952665,"21":-0.014919979656490915,"22":0.0067763688166686984,"23":-0.03301486368120441,"24":-0.02681758423822821,"25":0.018603403857401578,"26":-0.050574858763572074,"27":-0.008885459527184234,"28":-0.023545623828145942,"29":-0.05599054280340522,"30":0.030805948485665254,"31":0.0031163585381591133,"32":-0.00553657034518945,"33":-0.002170238858446745,"34":-0.003757029117244647,"35":-0.016049978470377806,"36":0.044131201169925756,"37":0.07870429689684187,"38":0.07525194670959301,"39":-0.005262553896857983,"40":0.03758089410279015,"41":0.05211332884026098,"42":0.10022747644230207,"43":0.026176481661144602,"44":0.029883317220675346,"45":0.04312936277497904,"46":0.026328860821813342,"47":0.03469330270540662,"48":0.0649040138863313,"49":0.049098899850083144,"50":0.04262929156815773,"51":0.06449760299414782,"52":0.058506184884695174,"53":0.03338798241707054,"54":-0.047241397844293445,"55":0.01093799974250466,"56":0.06662654173087612,"57":0.05761056471038502,"58":-0.07209083540319446,"59":0.04709379576204538,"60":0.013704524878622238,"61":-0.04627355345602267,"62":-0.07523817095092555,"63":-0.045437878838724424,"64":0.0547743236827453,"65":0.07080139970562566,"66":0.0196221656643164,"67":0.04748065800527989,"68":0.015560367541339642,"69":-0.025807886056264696,"70":0.02534610819962682,"71":-0.02355037378947841,"72":0.05563956590812571,"73":-0.06306261692482433,"74":-0.005129534373543938,"75":0.007488692100471901,"76":0.0543281137954481,"77":0.10495742780000462,"78":0.013680370365160534,"79":0.016913240856894003,"80":-0.017587447421273016,"81":0.05702002491625415,"82":-0.07083046079848233,"83":-0.009134115972696255,"84":0.06028344684131073,"85":0.04849562781320343,"86":0.016457562914881887,"87":0.021958245201792778,"88":0.05066578263683551,"89":-0.025993972393337197,"90":0.08372114055869175,"91":0.03454570141818816,"92":0.016283190696874252,"93":-0.02838711953208258,"94":0.06480731414471669,"95":0.08286754142614343,"96":0.0009453197417998753,"97":-0.004242894448236735,"98":-0.01679885685373583,"99":0.05674187198488315,"100":0.05702393573074824,"101":0.030240228394012754,"102":-0.01710457228980813,"103":-0.047722358406670114,"104":0.10859937835202149,"105":0.05141519180298778,"106":-0.05181923435630385,"107":0.0073479542327000505,"108":-0.0580045368355202,"109":-0.012582718551307121,"110":-0.048108565499120994,"111":-0.037366405867200504,"112":0.07324559521373813,"113":-0.0016344889150170427,"114":0.030603561146303172,"115":-0.005663316404220061,"116":-0.03251307451513421,"117":0.06896518768697898,"118":0.0041423671819964805,"119":0.09333290683627839,"120":0.018973224361701402,"121":0.0011509408020776307,"122":0.06308401812760278,"123":0.005333200810651196,"124":0.00891259142443557,"125":-0.015993855445005454,"126":-0.10809100509539132,"127":-0.014212341079965789,"128":0.06043020539274727,"129":0.007137777457664454,"130":-0.018862898624454717,"131":-0.04793052482235637,"132":0.12260620272282566,"133":0.04767869781598742,"134":-0.03141503124463863,"135":0.08972690548623936,"136":-0.03138794964217517,"137":0.022951587399219608,"138":0.009925653383518356,"139":0.0005562929303753061,"140":0.03907420313875294,"141":0.03790298335393784,"142":-0.058909797727627625,"143":0.04184563666546484,"144":0.016903051463931687,"145":-0.10791348200412164,"146":0.06995765176980775,"147":-0.05146066338365941,"148":0.04937839542969783,"149":0.025988449684513963,"150":0.0319831556155876,"151":0.058592562023887934,"152":0.0428144200767629,"153":0.07224255792328663,"154":0.024437467642338312,"155":0.1363243219889786,"156":0.0009096558804441512,"157":-0.03807413057916482,"158":0.0036019068847994015,"159":-0.0045621304261259255,"160":-0.06086981346092352,"161":-0.011265681624042768,"162":0.008634116834998533,"163":-0.0057462140578060416,"164":0.014958335053842642,"165":0.0950542226366989,"166":0.08519607381271999,"167":0.041160589592740125,"168":0.011602530069986907,"169":-0.014438255065722794,"170":-0.015456133381469794,"171":0.005632263474880777,"172":0.015321322424241102,"173":-0.019385994885539045,"174":0.03605637887826137,"175":0.005494097248534591,"176":-0.03582555979145934,"177":0.05969275573268693,"178":0.02322131897664029,"179":-0.0014666872562009788,"180":0.01563476131393201,"181":-0.02854528184104755,"182":0.05024508039673178,"183":-0.022477764300128506,"184":-0.0019523821845204602,"185":-0.0058524344958459495,"186":0.0026787718653785058,"187":0.08165994462469196,"188":-0.034471142141799825,"189":0.0014554502778193641,"190":-0.05388619159722451,"191":-0.019657057082230974,"192":0.07325251218830452,"193":0.031210410790050873,"194":-0.019537397239721886,"195":-0.019466860920814448,"196":0.020592128913941403,"197":-0.004039490298527817,"198":0.008189072044766665,"199":0.06466143298689725,"200":0.002155791931020345,"201":0.06410905164230327,"202":0.049927284323088475,"203":-0.052989545050600564,"204":0.06878176209936439,"205":-0.0006366141112428816,"206":-0.016558250651700576,"207":0.04101935908316784,"208":-0.008958820723140264,"209":0.03486365281217904,"210":0.06368991162226986,"211":0.029846933330312984,"212":0.012082058629074445,"213":-0.001552794281791544,"214":0.004452993018685488,"215":0.03601263301636901,"216":0.09590116621614594,"217":0.07741901709196332,"218":0.06044352863081736,"219":0.05972754363235382,"220":-0.037889706270870044,"221":0.018851640570593034,"222":0.019689046873853488,"223":-0.07188424348444929,"224":-0.04383414345009705,"225":-0.01857342725391935,"226":-0.01391914723311613,"227":0.0002809344049116859,"228":-0.040109275038429024,"229":0.03710789341792926,"230":0.021326995991248536,"231":-0.056803264324823084,"232":0.08827284462429413,"233":0.01548065054273061,"234":-0.04354142113672857,"235":-0.03256545689184916,"236":0.023462655506014264,"237":0.018124581070728635,"238":-0.055706123107045986,"239":-0.02616453401917801,"240":0.008814079515820038,"241":0.03793918449208528,"242":0.019734466661064567,"243":0.09727788016713831,"244":0.06117437258745824,"245":0.002575832181808984,"246":0.005772416410767191,"247":0.0029351799375647233,"248":0.03126550924892693,"249":0.05062624745537297,"250":0.06004223202848709,"251":0.04687737191443338,"252":0.00548331354608546,"253":0.07649141848741535,"254":0.036813295911777115,"255":-0.01589736087475667,"256":-0.05964463639731505,"257":0.03794309071931768,"258":0.024474952598775246,"259":-0.06018089315857337,"260":-0.014764292368194638,"261":-0.022094868496872554,"262":0.05730722842653978,"263":-0.01759852768871213,"264":-0.005830415434476433,"265":0.025887909498559687,"266":0.032686247859619426,"267":-0.010327524317483568,"268":-0.03566912852222851,"269":0.013297361993512717,"270":-0.0009299529165943799,"271":-0.02037922867758639,"272":-0.003401697410642169,"273":0.01927820066618526,"274":0.09997000534125859,"275":0.049596295935947804,"276":0.05538717882870871,"277":0.07180729718091827,"278":0.011490487226668717,"279":0.08192944435562984,"280":-0.0391075770695479,"281":0.029668794234316093,"282":0.002140961514611299,"283":0.01933384353226623,"284":0.034178824362959714,"285":0.021115312973866113,"286":0.03773670743866833,"287":-0.0029996900187386406,"288":-0.013284398076925977,"289":0.05063710112112683,"290":0.020096907226341252,"291":0.06180235820262778,"292":0.025736962654405376,"293":-0.022940341041958787,"294":0.08073259730866642,"295":0.0028212722699453275,"296":-0.05640478222374931,"297":-0.04068851868225682,"298":0.022796610509137408,"299":-0.005386811019146992,"300":0.016515098686996233,"301":0.014182268165827358,"302":0.02514797893459642,"303":-0.0013328618411356245,"304":0.02437633666794533,"305":0.04277388291013668,"306":0.06592568134264863,"307":-0.034957810692087504,"308":-0.03464044803064147,"309":0.06090427968491537,"310":0.012742974164004474,"311":0.0027531089927969815,"312":0.022971090148073116,"313":0.009060137161089814,"314":0.046839993672881323,"315":0.08095337064270698,"316":0.04783081891616261,"317":-0.013317615378857858,"318":-0.046580138523422306,"319":0.042742017751501646,"320":0.07137856290361376,"321":0.037535403058051274,"322":0.06795697068891958,"323":-0.014194667443048817,"324":0.038058857616817314,"325":0.05557695913535294,"326":0.05912068547385145,"327":-0.025108873658103877,"328":0.000855333383022109,"329":-0.03132857662574411,"330":0.020831438467471736,"331":0.05483880439704923,"332":-0.06928031995704455,"333":0.00823567555843185,"334":0.017154056254315122,"335":0.12391893192582702,"336":0.02351126057359384,"337":0.06205963423530779,"338":0.06805634744412589,"339":0.07715654021920157,"340":-0.015118875825198648,"341":-0.004427500359728673,"342":-0.040072333725213446,"343":0.046210502182895595,"344":0.05180483866003339,"345":0.020693040013564763,"346":0.05785352438349418,"347":0.04204129349583446,"348":-0.015081024181481082,"349":0.028663454098866403,"350":0.0551311717243834,"351":-0.025024962476029016,"352":0.015947952211826006,"353":0.023903262988894527,"354":0.030989371770272976,"355":0.03606244410311843,"356":-0.01951149164968587,"357":-0.013125560554100876,"358":0.029125038386038696,"359":0.02656669820236303,"360":0.13781456426556682,"361":-0.020635381441482182,"362":-0.019116335214150366,"363":0.02366468137366429,"364":0.03871097330884961,"365":0.014812625669618934,"366":0.013752288104664194,"367":0.05004022719156193,"368":0.003560338684838665,"369":0.002752709884642123,"370":0.08035440767252797,"371":-0.10828065436999111,"372":0.042283502061672786,"373":-0.019783678986431477,"374":0.08026254681171456,"375":0.05229965888336849,"376":-0.009326268678592426,"377":-0.04206787477430089,"378":-0.027652748909289322,"379":0.09282475014816466,"380":0.025964948021636722,"381":0.10118759450136453,"382":0.02570469707497535,"383":0.01632664621237348,"384":0.09219294351115132,"385":0.008906587430572543,"386":0.020390770984191283,"387":0.008155289356499056,"388":0.0589053084796764,"389":-0.03220239172135417,"390":0.0008488765540038515,"391":0.023761903349177826,"392":0.046478423537844905,"393":0.004179182786901598,"394":0.017853092301220397,"395":0.12666531629079697,"396":0.000660507540280017,"397":0.023810811699561164,"398":0.11999654923571262,"399":0.028718022939787303,"400":0.008370185760577041,"401":0.01843348644764749,"402":0.030405632498646057,"403":0.03179916935385856,"404":-0.015423753270510274,"405":0.020942349879530097,"406":0.015321578220458308,"407":0.01813085410811921,"408":0.021773312887054905,"409":0.03906904054814344,"410":0.06289556474789838,"411":0.058021563860148964,"412":-0.03277349582138745,"413":-0.008118400814338067,"414":-0.014196663672906954,"415":0.004345796025941717,"416":-0.003953106888689699,"417":0.004843819517124815,"418":-0.0005685293468929002,"419":0.027903428959251294}},{"sx":1,"sy":1,"depth":420,"w":{"0":-0.03511610377086875,"1":0.053206247176280794,"2":-0.010237923723731928,"3":0.04064466426070008,"4":0.028395413123652218,"5":0.1392237038395103,"6":0.035775448818493684,"7":0.011543847381077069,"8":-0.008782014876089388,"9":0.07343955067451517,"10":0.04113307900664264,"11":-0.01524943418661429,"12":0.01950697720620375,"13":-0.03719245820364869,"14":0.043872880289831766,"15":-0.0030255715023680065,"16":-0.004597437136672056,"17":0.02914906773112399,"18":0.0009191723476575281,"19":0.03497060163601528,"20":0.002211071981797254,"21":-0.00022130718052970472,"22":-0.014942868509775137,"23":0.06776410132903639,"24":-0.015023901047860572,"25":-0.04068028331344366,"26":0.043543955154211056,"27":0.08557937051107546,"28":-0.0252202851474487,"29":-0.022606052825825874,"30":0.07201204528482162,"31":-0.01743180007095583,"32":0.01730920462842236,"33":-0.050299099305819474,"34":0.0514791167075133,"35":-0.010222412857203432,"36":0.016761943786213505,"37":-0.02718304507925993,"38":0.10565349554261685,"39":-0.029289830206084503,"40":-0.043377243989868176,"41":-0.028097738632492323,"42":0.05382344792954211,"43":0.04975447313334583,"44":0.1117149646872779,"45":0.01797060759584181,"46":0.06432467519001342,"47":0.045222018090571005,"48":-0.031051557976572237,"49":0.0020878378580551243,"50":0.005558618458412107,"51":0.13398105053534387,"52":-0.02943600850415197,"53":0.060091854429665616,"54":0.036253845342991205,"55":-0.01901925832965293,"56":-0.01118435656976628,"57":-0.0135247901976075,"58":-0.04367036790119939,"59":0.06907216421262773,"60":-0.02488103883920507,"61":0.01186981680005629,"62":-0.029742621523227483,"63":-0.015203840526723696,"64":0.004309756305452543,"65":-0.011536270838524364,"66":0.03312121614992943,"67":-0.000253321907107485,"68":0.001593316579442199,"69":0.03461548839406438,"70":-0.00019647796476549516,"71":0.024872955098978064,"72":0.005921368601987543,"73":0.009017967668302176,"74":0.16393924768427318,"75":0.08003456961785184,"76":0.06227770371585854,"77":-0.038523165344356465,"78":0.009670288015721912,"79":0.03824107151902436,"80":0.04975029417919997,"81":0.05382239736559296,"82":-0.00861971573486392,"83":-0.06056312786730907,"84":-0.02284041188456897,"85":-0.018878366612230683,"86":0.042141092184407015,"87":0.050224738064151106,"88":0.02236386765200791,"89":0.07979203545706816,"90":0.02320698526992143,"91":0.0845701709679844,"92":-0.030581778674954627,"93":-0.05392754662433031,"94":-0.011180906297095018,"95":0.0020204074881547507,"96":0.06061304147257646,"97":-0.03483455531508491,"98":0.05457937229585495,"99":0.011287238495849651,"100":-0.03070859188208986,"101":0.0712355651051903,"102":0.04940143725412725,"103":-0.015487944097149027,"104":0.07443071447685094,"105":-0.05769519760941618,"106":-0.07579711578091004,"107":-0.022291172628091105,"108":-0.0008992323832702376,"109":0.015708649418163693,"110":0.03724598991564592,"111":0.033472032496771414,"112":0.053072853909172615,"113":0.00009857576955655583,"114":-0.007392322682042529,"115":0.12406291601398867,"116":0.03910569721482437,"117":-0.04896778430296717,"118":-0.014261165675994319,"119":-0.01713032465469734,"120":0.05208072702697757,"121":-0.0016940575223775044,"122":-0.02797721073266983,"123":-0.09343839796512028,"124":0.022119236234850185,"125":0.042652949865201045,"126":0.016595424371706278,"127":0.012190305343837471,"128":-0.009568913899572607,"129":-0.036741423304269515,"130":-0.07704826720111674,"131":0.07661363332713611,"132":0.03577319939045808,"133":-0.015442549894240501,"134":-0.013135541280950744,"135":-0.014616642802914531,"136":0.016393940466714326,"137":-0.0267554755582876,"138":0.053336854456554915,"139":0.05808366115593872,"140":0.013049925948257933,"141":0.0018458793295421318,"142":-0.006919363665239338,"143":-0.06867138921433082,"144":0.026363454498150685,"145":-0.009734457030599525,"146":-0.02489666518623392,"147":0.0412041509546519,"148":-0.0013080150316264166,"149":0.043212522225523096,"150":0.057589565384234175,"151":0.02950901876757397,"152":0.025123394289056255,"153":0.034365191362627584,"154":-0.08365202966159675,"155":-0.02041222004077403,"156":0.07882790276336525,"157":0.036707993124240806,"158":0.08702562600227436,"159":0.04375862403040653,"160":-0.06462604857596702,"161":-0.016907705648685167,"162":0.03436659689982274,"163":0.0279326549515619,"164":-0.035958573984315796,"165":0.03985359266327954,"166":-0.045782522564142634,"167":0.01636959086416693,"168":-0.021495753244667692,"169":0.05361094259739513,"170":-0.09617690619338495,"171":-0.0006652629335339986,"172":0.02584252489674566,"173":-0.007661424240846515,"174":0.034110329837284126,"175":-0.010912566190304352,"176":0.06199620164824033,"177":-0.02571785900472314,"178":-0.013992033964541562,"179":0.03764803105254261,"180":0.12347202694610315,"181":0.01843095795368388,"182":0.04467478660413855,"183":0.01959815320871692,"184":0.036775414056332,"185":0.02863732324381738,"186":0.06430169750139908,"187":-0.0651479065128934,"188":0.02611892833465733,"189":0.04421861127136814,"190":-0.006310809285554603,"191":0.05326638587506417,"192":0.0091860880741141,"193":-0.038350127303070136,"194":-0.01900686807134984,"195":0.009095619709488882,"196":0.038237571095973255,"197":-0.05717232342458034,"198":0.021139600450827266,"199":0.020122883085270517,"200":0.06468597159051438,"201":-0.0066527403313326305,"202":0.033154182732184255,"203":-0.030378474213131713,"204":0.04730093893781296,"205":0.0017714191553117806,"206":0.07370392398177114,"207":0.0304491818306143,"208":-0.0386511770652098,"209":-0.001159382969994787,"210":0.016386271176817197,"211":-0.059978415748155524,"212":0.003034927749841498,"213":0.04072948024403874,"214":0.0036176278339559997,"215":-0.015157544848466712,"216":-0.05895264516845067,"217":0.056984481986652534,"218":-0.02653155843917355,"219":0.03357668333318582,"220":-0.043037070457476276,"221":0.02639788484667591,"222":0.015431812772962827,"223":-0.0005775962085252059,"224":0.04734513036156676,"225":0.03631873775575435,"226":0.001226412621194346,"227":0.024874156888151658,"228":0.02398464104931279,"229":0.0004535659691970636,"230":0.025385416185353102,"231":0.029254965393149583,"232":0.0291050791227196,"233":0.004451553477979073,"234":0.018913055941614413,"235":0.06604832627549907,"236":0.16668371560359155,"237":0.06586357188290352,"238":0.08190533273931701,"239":-0.0040884540149009,"240":0.003303557612153323,"241":0.015588608249005913,"242":0.06773467199782719,"243":0.054531998473636996,"244":-0.04033861915201334,"245":0.007351752433008689,"246":-0.0005382725702029096,"247":-0.04102053728961166,"248":-0.030285781005672325,"249":0.07106573144021736,"250":0.0065998351062439755,"251":-0.015084855739185799,"252":0.024059211421102643,"253":0.05470015456864808,"254":0.10884456723974624,"255":-0.004919660705293674,"256":0.021162032232035752,"257":-0.007265570304367262,"258":0.0297559917122846,"259":0.03605149922222242,"260":0.06521040338474017,"261":0.05404683935248443,"262":-0.0368724217360573,"263":0.018646127391810208,"264":-0.055695231548665985,"265":-0.013825414083887674,"266":0.03048889781536388,"267":-0.004949510736159568,"268":0.020232321951803856,"269":0.05798909648326429,"270":-0.08711666783601184,"271":-0.0017556192863254396,"272":-0.012558129644849467,"273":-0.09025806129311678,"274":-0.013635593374347905,"275":0.0575006396214372,"276":0.07690649460750514,"277":-0.008962541254650234,"278":0.0012616877434421681,"279":0.043663672049489774,"280":0.05152976626606433,"281":-0.08566346288052701,"282":0.028386421390316306,"283":0.07959671847477669,"284":-0.002426753508149406,"285":0.011807430735186522,"286":0.026484505192029578,"287":0.014516306416068428,"288":0.03911827657481125,"289":0.04591584647968471,"290":0.07130707612354012,"291":0.06751517114015144,"292":0.007027708429227801,"293":0.08656084277622438,"294":-0.07370042764814977,"295":0.05556240694819458,"296":0.04495349982867889,"297":0.03418410736319361,"298":-0.016522740980504044,"299":-0.008529703560700335,"300":-0.05872612144225813,"301":0.021619412481126633,"302":0.007904345774573806,"303":0.004986496984521669,"304":0.026254884247802156,"305":0.04973007296511669,"306":-0.050394469516830256,"307":0.0022011690051658103,"308":0.01836273608052633,"309":-0.027987372103231756,"310":-0.058136443272980336,"311":0.058634450105060194,"312":0.07797222168792362,"313":0.07288548575495277,"314":-0.007046956244495611,"315":0.07595914102157857,"316":-0.06459230739535396,"317":0.006397853281204249,"318":-0.0944989388156771,"319":0.04827233083061586,"320":-0.017074001892391232,"321":-0.01340570668750407,"322":0.04047977509979616,"323":0.011334171519774614,"324":0.01921387431529531,"325":0.020023737010781827,"326":0.01120362845221185,"327":0.00007917721992253886,"328":-0.0020667005944507507,"329":0.022631865419506528,"330":0.047001291078956814,"331":0.044373735502628714,"332":-0.0360996399580835,"333":0.018035153994575795,"334":0.00141933587817903,"335":0.013547760407142157,"336":0.06865122524891619,"337":0.09735957491880956,"338":0.06255658234158014,"339":0.1086407035404853,"340":0.0654603955714287,"341":0.03904671737431509,"342":0.06550880187008797,"343":0.0965773708962364,"344":0.0006407554008736711,"345":0.10176995881207596,"346":0.054053021176695894,"347":-0.05974201168281035,"348":0.005922741832825215,"349":0.04245922243713663,"350":-0.02555527306097437,"351":0.04483356517699935,"352":0.0624500515295598,"353":0.10158745724286494,"354":-0.010520583635711693,"355":-0.01500276678740334,"356":-0.032907080317069244,"357":0.024939228359926822,"358":0.0458587253474252,"359":0.06328847003188225,"360":0.09553039631175468,"361":0.03746560383281211,"362":-0.05831970409242877,"363":-0.08616906820632023,"364":0.07581548853482407,"365":0.052977167516314316,"366":0.10568980442288378,"367":0.03267613653177925,"368":0.006820554789965443,"369":0.03980557575135302,"370":-0.06233996532382457,"371":0.033994961206200366,"372":0.06672705305804845,"373":-0.018606439928257983,"374":0.05031336673382617,"375":0.0010989695678846893,"376":0.04602005041838639,"377":0.032924981602962027,"378":0.0064152620688077595,"379":0.05506388128618657,"380":0.06976555532548027,"381":0.0825145147926479,"382":-0.022800739258457745,"383":0.10666291128172516,"384":-0.0035848238768317097,"385":0.025314851738147397,"386":0.023635749079065092,"387":-0.033191803746276394,"388":0.04437148983630743,"389":-0.003343161821131454,"390":0.0341852822561092,"391":-0.015222681266039432,"392":0.003215213661966751,"393":-0.06353838431177408,"394":0.034286298489589105,"395":0.017935026502671248,"396":0.04238831250384382,"397":0.06473032216172547,"398":-0.05453154737399314,"399":0.002418889796355097,"400":0.02430001351515086,"401":-0.03848129928546323,"402":-0.012541603626236755,"403":-0.07682981109229226,"404":0.013749433838242998,"405":0.08375449891580361,"406":-0.024553207336453754,"407":0.07833927790385803,"408":0.03594304578848627,"409":-0.030971645981830328,"410":0.031958112476722575,"411":-0.01734699090115119,"412":0.03561357625218709,"413":0.03842591082454915,"414":-0.03173075273322372,"415":-0.009278754838765248,"416":0.041183536753740854,"417":0.0027116742775396855,"418":-0.017660788941502564,"419":0.04484215782608076}},{"sx":1,"sy":1,"depth":420,"w":{"0":-0.0841936036633305,"1":-0.17501729707307234,"2":-0.2610917917939212,"3":-0.17241913142775608,"4":0.05700565321076299,"5":-0.17056144274893886,"6":-0.003325695002749844,"7":0.024314955863653176,"8":-0.12748752892718823,"9":-0.10519694905550722,"10":-0.14574047603438078,"11":-0.14342348760578139,"12":-0.06803172529158569,"13":0.015654472128203027,"14":-0.0653834579102275,"15":-0.14696608787663057,"16":-0.1263478243060878,"17":0.004486146813922747,"18":0.046738974807421375,"19":0.04104750782512297,"20":0.025243750123997162,"21":0.04430469073391503,"22":-0.07535895655057025,"23":0.14806482047151745,"24":0.02448606666824789,"25":0.04512905596817,"26":-0.007734197994094843,"27":0.1104172810216818,"28":-0.05928319966380184,"29":-0.23184926250844126,"30":-0.13985730756386092,"31":-0.18807251252258542,"32":0.009830785204766518,"33":0.0026828418220759915,"34":0.007697787213828918,"35":-0.07555240353575918,"36":-0.10071307980784015,"37":0.0934222914987031,"38":-0.23695629866096551,"39":-0.03922264452979623,"40":-0.003515633919476487,"41":0.08492043954349617,"42":-0.04326607159372536,"43":-0.01777554562446835,"44":-0.07385947330735705,"45":-0.1282804997160545,"46":-0.07052733861923319,"47":0.04636081052478579,"48":-0.037029048015089355,"49":-0.017803896536242494,"50":-0.11145958175937502,"51":-0.07582294462520356,"52":-0.002404635237826693,"53":-0.04836420697737833,"54":0.04559501091378865,"55":0.038317790353370615,"56":0.12707848180271294,"57":-0.1515465766479419,"58":0.09965969026375601,"59":-0.20950880425984755,"60":0.08493374611248612,"61":-0.04196123315239597,"62":0.04828015946577932,"63":0.025515392033605803,"64":-0.1774586063496086,"65":0.0714086155862781,"66":-0.06919744032565794,"67":-0.02442250054687241,"68":-0.009007918405182764,"69":0.0006980840576334039,"70":-0.10061368909252884,"71":-0.14056425816934173,"72":-0.17877879823479972,"73":-0.1264224204868244,"74":-0.025787724993881368,"75":-0.06357348109789729,"76":-0.060424850322528284,"77":-0.08180938387430522,"78":-0.0473636601136269,"79":0.03204835381132228,"80":-0.04004392454292584,"81":-0.024763282813549822,"82":0.011344787677077396,"83":0.12223816357151576,"84":0.10728598236281353,"85":-0.13617170011378524,"86":0.05926630525118262,"87":-0.11009978982951033,"88":-0.06239901595420612,"89":-0.06739296568696848,"90":-0.02604606292445501,"91":-0.06608073770887425,"92":-0.05531974356567212,"93":-0.026961850696286278,"94":-0.12192795639755355,"95":0.142657878736817,"96":-0.11520624781830348,"97":-0.010018992793880131,"98":0.07356197609451844,"99":-0.12969280439575784,"100":-0.006196354992071513,"101":-0.046793539566657376,"102":0.038295443220112704,"103":-0.07376078809763963,"104":0.037634298529666814,"105":-0.0904220772971021,"106":-0.07986374781771265,"107":-0.018049946435775316,"108":-0.01272754582181477,"109":0.0025154575316682732,"110":-0.07160882564470378,"111":0.02888513959658015,"112":-0.013748284657196155,"113":-0.10528658920768502,"114":0.07122428442256298,"115":-0.09404938409422225,"116":-0.04324756414576236,"117":0.06992909065981844,"118":0.0571875014902309,"119":-0.012141967769196432,"120":0.00693487577214804,"121":-0.031255167052329384,"122":-0.02393819961814664,"123":0.03150347060836886,"124":-0.1136800575304252,"125":-0.02340572599046067,"126":-0.10263268047680635,"127":0.031527406652104274,"128":0.04731371491168818,"129":-0.07960253655235466,"130":0.12767986512499552,"131":-0.07551150000208008,"132":0.06956881680208586,"133":0.0680975527515104,"134":-0.08534376285312137,"135":0.15487073314118283,"136":-0.062024218361366616,"137":-0.10615825933676547,"138":0.04230913962439129,"139":-0.02987193260223662,"140":-0.060734297025358784,"141":-0.014124082663989465,"142":0.06476297413120587,"143":0.015427444547631246,"144":-0.012421993680420643,"145":0.0666865363771901,"146":-0.03421837506979695,"147":0.15703444014650556,"148":-0.0015469992481340214,"149":0.13756329473645404,"150":-0.005444247915424499,"151":0.2237438529491177,"152":0.01718262948198731,"153":0.05796478341403382,"154":-0.08031997195788285,"155":0.0025014734349103895,"156":0.06875630241729834,"157":-0.10464498056138333,"158":0.03938116490562183,"159":-0.06868256977658292,"160":0.0425239432574598,"161":0.06788820839016547,"162":-0.06145474759385378,"163":-0.019800461536506667,"164":-0.18733140963613235,"165":0.041752943019612014,"166":-0.029688656596640033,"167":0.05271706975587448,"168":0.018356422259513505,"169":0.029031344545907913,"170":0.07610028015097671,"171":-0.05710951417243251,"172":0.022643321441087643,"173":0.006967300520440866,"174":-0.10538100368027221,"175":0.18163367251862092,"176":-0.011276439948621403,"177":0.18603677102047492,"178":-0.004073732362686538,"179":-0.003740969298720561,"180":-0.09162200132915686,"181":0.0602777022604867,"182":-0.017541539065120473,"183":0.09535912553321786,"184":0.28132864388873746,"185":-0.051331056430813746,"186":-0.01435645782832715,"187":0.02184887167432114,"188":-0.029995552538360594,"189":0.1667031811788831,"190":-0.0742003671077754,"191":0.1669423435904554,"192":-0.14226917473280284,"193":0.24046127492519348,"194":0.028890935345359307,"195":0.004952590777579681,"196":-0.06400326126187163,"197":-0.008051751397987028,"198":0.15543526075997158,"199":-0.030030319486739464,"200":0.042705667616811736,"201":-0.0410194665677484,"202":0.07301853702082708,"203":-0.00917277953667521,"204":0.16950912954960715,"205":0.3869253400596046,"206":-0.05022079584747624,"207":-0.050560323707884894,"208":0.009818478476852485,"209":-0.08825924912966092,"210":0.11273828592853692,"211":0.0818767796488622,"212":0.4179487369022264,"213":-0.08304206632875512,"214":0.00750184287184872,"215":0.07476494482163847,"216":0.12753765353152952,"217":0.06446252753112929,"218":0.03982478845143745,"219":0.30983981524205234,"220":-0.001648570803438419,"221":0.0566514666197791,"222":-0.10943023602417541,"223":0.011470846496591346,"224":0.16685575076073264,"225":0.1507322108373591,"226":0.5901691503992859,"227":-0.13464840427165078,"228":-0.0351318128286701,"229":0.0938334493850448,"230":0.012503757053150362,"231":0.020897733951342583,"232":0.024051876325643783,"233":0.4851089937326586,"234":-0.1640952754954562,"235":-0.013311960148443198,"236":0.04429214554161027,"237":0.030995085329567112,"238":0.08558393798751454,"239":0.19746122974506194,"240":0.6199632492621377,"241":-0.19655697223550284,"242":0.022443326164242303,"243":0.07320320500786957,"244":-0.16765482768936074,"245":0.12552813691157022,"246":0.15584173464438322,"247":0.7299364940443224,"248":0.07394878373970182,"249":-0.09964420314058035,"250":-0.027422690982911512,"251":-0.1284453958121985,"252":0.04476398626850837,"253":0.21006057704607842,"254":0.5387681999858571,"255":-0.07683055894567557,"256":-0.21983886051486234,"257":0.08785508043936936,"258":-0.01209195813785638,"259":-0.00009151839668209132,"260":0.22998174524580264,"261":0.7808730346768679,"262":-0.14230811068983304,"263":-0.07855944484641418,"264":0.02480563656814805,"265":-0.09228539891243523,"266":0.0915483840573191,"267":0.272498722589156,"268":0.9342592606609282,"269":-0.24369129870479106,"270":0.13097156805375354,"271":-0.0773800730303871,"272":0.024332077357594246,"273":0.1168213692046147,"274":0.3005552726430465,"275":0.9644671554512597,"276":-0.18802658235635555,"277":-0.15539534826732176,"278":0.07411445322129474,"279":-0.06286665485221972,"280":-0.12974337362944358,"281":0.28373633915046936,"282":0.8092441682320766,"283":-0.2359102955786877,"284":-0.02437934755307315,"285":0.0006776705838985868,"286":0.0063751805588343775,"287":0.10687301370503414,"288":0.1910700975794722,"289":1.1465870018972266,"290":-0.1680614337785429,"291":0.030865432039928246,"292":0.051376721430388794,"293":-0.03290869697984908,"294":0.018417617563201504,"295":0.22435031641764444,"296":1.0109386311139006,"297":-0.4716009866967799,"298":-0.16890173282954454,"299":0.0374927570723459,"300":-0.09286105511351157,"301":0.1553813463943061,"302":0.19609867033134853,"303":1.3398943566157682,"304":-0.19682385310000894,"305":-0.11356286081723828,"306":0.1232171955852699,"307":0.03475307530072441,"308":0.031160224294119507,"309":0.2405866615400901,"310":1.2904698398475751,"311":-0.32355968035342386,"312":0.06381001733451863,"313":-0.03636140778115462,"314":-0.028827898344977468,"315":0.03841453016085292,"316":0.21391084766016263,"317":1.484819608874497,"318":-0.3039500656506936,"319":-0.11536708392526841,"320":0.02600248974722138,"321":-0.04844883563643015,"322":-0.14837620399693405,"323":0.05081232003308706,"324":1.2372837835898507,"325":-0.3444730482386126,"326":-0.10799282242448074,"327":-0.006999460145444507,"328":-0.043961898533800566,"329":0.05453004279032793,"330":0.125027248972541,"331":0.9053444652771245,"332":-1.4217541350231735,"333":-0.08829095988048187,"334":-0.11910667841343146,"335":-0.14110308917938377,"336":0.004946495684467788,"337":0.1489812518954737,"338":0.7115128604936298,"339":-1.669083226090298,"340":0.06257050675793852,"341":-0.046289178608531635,"342":-0.04844805148985146,"343":-0.11800564685081076,"344":0.11258383354837895,"345":0.34457656350926597,"346":-1.5807202049204807,"347":0.01829757176705795,"348":0.08905366865719953,"349":0.0662806819232633,"350":-0.09048800772534739,"351":-0.03870505290174265,"352":0.24774755284358163,"353":-0.02181576460707542,"354":-0.14305672614282344,"355":0.10607251521324759,"356":-0.053792447822338454,"357":-0.12127130856946865,"358":0.012300481689986504,"359":0.07564843835558473,"360":0.04594912997147875,"361":0.014723804189749255,"362":0.05796558467688343,"363":-0.010350262734536493,"364":0.03161137018381887,"365":0.05046240723741162,"366":0.003910045296613922,"367":-0.13611577374076897,"368":0.10479569738505493,"369":0.028685636775880746,"370":-0.004763444758962646,"371":-0.1275737740853252,"372":-0.11714400185036108,"373":-0.012004654504006382,"374":-0.046273144833240215,"375":0.06733785356112827,"376":0.01839855399841985,"377":-0.0016680040618177257,"378":-0.07376987441012513,"379":-0.07677378081486333,"380":0.11408097834527457,"381":-1.661844745688971,"382":0.021548105602688116,"383":-0.027397002023532332,"384":0.1214989992273556,"385":-0.08522975269428468,"386":-0.14250490650607422,"387":-0.09784129488766807,"388":-1.4976830096572684,"389":0.10081905194283101,"390":0.03913871935363814,"391":-0.02336838141136225,"392":-0.09961809778396402,"393":-0.027368904611760586,"394":0.07259896684901372,"395":-1.3601565981913661,"396":0.17741069739154083,"397":-0.06071522847322188,"398":-0.03817214764341701,"399":0.07607426277995921,"400":-0.002509909928353863,"401":-0.06734647379731776,"402":-0.32893424862198234,"403":0.10025977964817648,"404":-0.025718878112323863,"405":-0.03963635161118979,"406":-0.060663437160537174,"407":-0.13104846606418077,"408":0.050117505458035956,"409":-0.11612321482985519,"410":0.06655434555853336,"411":0.15037240730124427,"412":-0.06617103849520481,"413":-0.0009914174538135944,"414":-0.18458634940522076,"415":0.008661966297922766,"416":-0.011381427291398,"417":0.05990720064951241,"418":-0.08109491305169927,"419":0.02787530171892556}},{"sx":1,"sy":1,"depth":420,"w":{"0":0.1821289299343721,"1":0.1794664531360876,"2":-0.25058046569880965,"3":-0.21903251294905818,"4":-0.15113180764770667,"5":-0.06847439344426437,"6":-0.16761575519132968,"7":0.25054913488342007,"8":0.009469793989046925,"9":-0.17653805851058407,"10":-0.052694179954140746,"11":-0.188155056488156,"12":-0.04718234871759818,"13":0.010255919868602439,"14":0.17188392928931848,"15":0.022897543516144064,"16":-0.11948590691891724,"17":-0.15814023975349395,"18":-0.11494723507512697,"19":0.11068845937706254,"20":0.03441270629004391,"21":0.24083028287915792,"22":-0.002570703882454361,"23":-0.098530112075798,"24":0.013631764075284793,"25":-0.053409582143010816,"26":-0.00009944237749069131,"27":-0.038024234034818805,"28":0.21968950263002662,"29":0.01536462279739249,"30":-0.045989558017288906,"31":-0.07350224741156826,"32":-0.10052876891461296,"33":-0.0316094053144535,"34":0.028825363956628786,"35":0.17510054855635918,"36":0.12027050386618356,"37":-0.0692634712965337,"38":-0.07175393274215183,"39":-0.06188006301058458,"40":-0.03628424611713596,"41":-0.1759898891347039,"42":0.20386196096830242,"43":0.15645404655393194,"44":0.1156839627811592,"45":-0.1947797457935206,"46":-0.08036952228102967,"47":-0.14736207018903788,"48":-0.0639972711431237,"49":0.1208282093593961,"50":0.0853382508352048,"51":0.06119524548418583,"52":-0.12093430278515542,"53":0.04273286387457856,"54":-0.0037346658902227175,"55":0.006414244249008548,"56":0.1592789695073598,"57":0.10386271207819799,"58":-0.10873645749388816,"59":-0.03183987730708993,"60":0.077851626305441,"61":0.03574485476257211,"62":-0.07030931594808029,"63":0.13147874688291436,"64":0.07217558794051261,"65":-0.14538189067627796,"66":-0.04504300394668975,"67":0.18870507646810272,"68":-0.037996862197078145,"69":0.0768273457716771,"70":0.18788460758881811,"71":0.1391329578885639,"72":-0.04426467276535997,"73":0.0032291745740228054,"74":0.08316721728540785,"75":-0.017462539910726122,"76":-0.09369146949336611,"77":0.19520554497893525,"78":0.09368734442323277,"79":-0.14343965588605473,"80":0.1047282310340487,"81":-0.03975895785021099,"82":-0.034749544633130625,"83":-0.020316589044684665,"84":0.1768424617483707,"85":0.09388175191610688,"86":-0.07626844614152171,"87":-0.0900486493387046,"88":-0.09507727149074817,"89":-0.046926979022888976,"90":0.027053955277505953,"91":0.23910009497224746,"92":0.0579023498191324,"93":-0.0895550602809554,"94":-0.05947747180885631,"95":-0.11503036800185629,"96":0.06523740206781986,"97":-0.2989529351652227,"98":0.1857442506867208,"99":0.04219366451683304,"100":-0.24191149497121156,"101":0.06619389475907253,"102":-0.07505347903677462,"103":-0.010299813464120292,"104":-0.2606927451456968,"105":0.1483844550628835,"106":0.20811352522493656,"107":-0.14194131027549348,"108":0.05194116589486635,"109":-0.06793965680877767,"110":-0.09171581302190591,"111":-0.25781052515872316,"112":0.17724105074117447,"113":-0.10805976069175491,"114":-0.12538826228224273,"115":0.04719414089379313,"116":0.09069449560577433,"117":0.14073980344964637,"118":-0.18211972076757627,"119":0.09861311109442969,"120":0.13454858016313173,"121":-0.11962310342420512,"122":-0.01026738710648073,"123":0.03474815940854393,"124":0.06250863574420357,"125":-0.004415051205472672,"126":0.1305396355237625,"127":0.07559805114699104,"128":-0.13148644687943892,"129":-0.09872680649952084,"130":0.07173576886626816,"131":0.02976964270574678,"132":-0.09110819712745319,"133":0.1800800381907569,"134":-0.04229999727060466,"135":-0.06589061296007294,"136":-0.02346443447025658,"137":0.07640380095114421,"138":0.03614307266411249,"139":-0.03063270930405081,"140":0.17850009196027986,"141":0.027979648974530716,"142":-0.05852769803720448,"143":-0.13484578945019993,"144":-0.04230829976393866,"145":0.05938172861660048,"146":-0.08147123232478734,"147":0.21422478758022875,"148":-0.14845997844190886,"149":-0.09477721445542629,"150":-0.055858711029114966,"151":-0.13542420023757754,"152":0.24020858160510275,"153":-0.0025429248502207937,"154":0.16177790274978407,"155":-0.08666251245382023,"156":-0.14921515877724287,"157":0.025060813236034245,"158":-0.008182827714436914,"159":0.11844384561292289,"160":0.10342016313120413,"161":0.22194988586620507,"162":-0.08713129291046637,"163":-0.24164762422756741,"164":-0.011459836925737961,"165":0.04449562643786184,"166":0.07887699220258104,"167":-0.0253010340538701,"168":0.17621144043270207,"169":0.03753675232096679,"170":-0.12563768142052367,"171":0.01838545841186825,"172":0.15763808445227218,"173":0.0766395469873523,"174":-0.10405439035048906,"175":0.14625537527678947,"176":-0.004879432723237542,"177":-0.059065861735552616,"178":-0.08853354911756604,"179":0.10249174221973527,"180":0.02702185006501206,"181":-0.1175501885928539,"182":0.10282354012760224,"183":0.09231308923970798,"184":0.0195792607087624,"185":-0.04971569276570038,"186":0.03975440341451044,"187":-0.009832950413217521,"188":-0.03414888116426743,"189":0.1081337517693996,"190":0.03680383220983437,"191":0.06661814661184966,"192":-0.09358537315425858,"193":0.09845818553440079,"194":0.08374258953452325,"195":-0.06664347030570635,"196":0.12936342120538463,"197":-0.052374581720631516,"198":-0.06113770521997401,"199":-0.017977894442560344,"200":0.18725837581358212,"201":-0.004096790793922449,"202":-0.052179929705560554,"203":0.1440131616096877,"204":-0.023653855572633515,"205":-0.053439736249997524,"206":-0.12927540057203213,"207":0.2928041174936587,"208":0.07531513822510805,"209":-0.08320100933031106,"210":0.035667651631283104,"211":-0.03680253091109341,"212":-0.0860147754278514,"213":-0.09316095434199609,"214":0.21738533147632674,"215":0.044285063592498265,"216":-0.004780981978186135,"217":0.09181189008436635,"218":0.023926056223861295,"219":-0.08618141830124867,"220":-0.2448472998727938,"221":0.03895676817745354,"222":0.06428730330602622,"223":-0.06098741399301378,"224":0.1127899919184612,"225":-0.029958441940917423,"226":-0.09990849133403676,"227":-0.19257444419539912,"228":0.09424771413116984,"229":0.05346124706070297,"230":0.001283154165588963,"231":0.11364272733111005,"232":0.05085916698692632,"233":-0.03801941388327642,"234":-0.14193524834710827,"235":0.21997321889236648,"236":0.02051029732470324,"237":0.14061068062017365,"238":0.15853689546118743,"239":0.035691977025190225,"240":-0.08609209691533364,"241":-0.0597690128130838,"242":0.19293149448633148,"243":-0.001573693782408041,"244":-0.06070409133713566,"245":0.16041318693237044,"246":0.0304197777395764,"247":-0.04460373973096567,"248":-0.06667138778844803,"249":0.2737451016171628,"250":0.051079572164923065,"251":0.20555777040950057,"252":0.1393749502960306,"253":0.08920974609371544,"254":-0.06242017318655112,"255":-0.0883701422736737,"256":0.19848894286499982,"257":0.06210433858021937,"258":0.072889765308391,"259":0.17676358524501498,"260":-0.0729197752722706,"261":-0.18689104625964606,"262":0.003217688922568398,"263":0.42461112408134716,"264":0.050393042738286015,"265":0.004604406226450987,"266":0.1084041982162565,"267":0.062248950585883096,"268":-0.2448374600008633,"269":-0.07276262457269883,"270":0.4354308091813765,"271":0.1447063897315308,"272":0.01353155421052588,"273":0.10171472921740184,"274":-0.023647976704486488,"275":-0.23618038300404431,"276":0.052432888633725326,"277":0.5146780476868387,"278":0.2726022681026254,"279":-0.05299443862282884,"280":0.04468006762326499,"281":0.06095237206657971,"282":-0.024082784249528665,"283":0.08028002153000148,"284":0.3183293328155884,"285":0.1514149427585816,"286":-0.07807591082986548,"287":0.07364862985854513,"288":-0.043481088695406386,"289":-0.2852956075324494,"290":0.13251615555802504,"291":0.45330373939965285,"292":0.21143169091091482,"293":0.018229904352426173,"294":0.10060116132612067,"295":0.01791832283629295,"296":-0.3907198947757988,"297":0.041161027218705404,"298":0.37323238336587256,"299":0.05997301587251403,"300":-0.057886826073457145,"301":0.16659078606188643,"302":-0.01005579979221229,"303":-0.27185611303981383,"304":0.08360079072465275,"305":0.6378999166105519,"306":0.2520130679935451,"307":0.09110302670275632,"308":0.2091807360921413,"309":0.02218640838928805,"310":-0.34848535346553167,"311":-0.05383970470321365,"312":0.6542370894281979,"313":0.17642640681222696,"314":-0.006261289143528808,"315":0.27818059537340517,"316":0.12255055511513159,"317":-0.28847172028660867,"318":0.0902952337491433,"319":0.5489452740261742,"320":0.00355566951008004,"321":-0.03361738745490395,"322":0.1394551550641188,"323":0.10675794793285884,"324":-0.018481770058243665,"325":-0.0037609321927890463,"326":0.5092515288915903,"327":-0.010879698571763229,"328":0.001937736663830301,"329":0.2197087451906176,"330":0.11514833553951599,"331":-0.2470138491349358,"332":-0.09626897629554115,"333":0.36467212746888383,"334":-0.07116216174692756,"335":-0.0004158472003539533,"336":0.21378440591867576,"337":0.10152363365503683,"338":-0.3557083105351562,"339":-0.004665425097353016,"340":0.31349387349121954,"341":0.03776549204675451,"342":-0.07754286829508243,"343":0.2614863910021041,"344":0.11575156161160256,"345":-0.47867070639153486,"346":-0.024565934492257895,"347":0.29489788336982026,"348":0.08290734213851295,"349":-0.05390668411258133,"350":0.280931208746337,"351":-0.016409576239293164,"352":-0.41664208708380274,"353":0.016888391326667085,"354":0.35661719328857555,"355":0.15432640647419982,"356":-0.014303764227668724,"357":0.2177793532099656,"358":0.05325884076236015,"359":-0.358748992033294,"360":0.025718408690578027,"361":0.09639122823097292,"362":0.08736770563837991,"363":-0.11822941308460228,"364":0.24392390680268353,"365":0.17379564540135925,"366":-0.27257228117559346,"367":-0.0023505237957052935,"368":0.36200290053538015,"369":-0.011217822188395276,"370":-0.06481046598380574,"371":0.2201654935043921,"372":0.1323047843715967,"373":-0.21959509599131724,"374":-0.05311560210515242,"375":0.38814458302784066,"376":0.17008136993621176,"377":-0.02210918996184747,"378":0.19268228734043238,"379":0.32474884401683124,"380":-0.22435710994294766,"381":0.02973994546517554,"382":0.29543457203964674,"383":0.12673339593477298,"384":-0.10682045814223051,"385":0.204398405773861,"386":0.14127706963886197,"387":-0.11076953803099703,"388":0.004939942279181794,"389":0.23487995805742032,"390":0.08962771937198515,"391":-0.021390995462630246,"392":0.24924582761261235,"393":0.14042655353323363,"394":-0.08127456622742664,"395":0.03945800253948401,"396":0.038929908008066935,"397":0.09885713819360106,"398":0.04163952231963245,"399":0.1674504414722284,"400":-0.00014141138692487444,"401":0.14869181461287276,"402":-0.16499706032014186,"403":-0.11285312976531871,"404":-0.044793054714741855,"405":0.14959561046915149,"406":0.13858427872017373,"407":-0.0660736273467893,"408":0.02028326795379694,"409":-0.01565608618430932,"410":0.08687388249810776,"411":0.11279641318355278,"412":0.06418750415582533,"413":0.2193941314365638,"414":-0.120857471079169,"415":-0.006153964978345338,"416":0.05645442693172974,"417":0.06713355359710248,"418":0.1230769876441492,"419":-0.009716079145674003}},{"sx":1,"sy":1,"depth":420,"w":{"0":-0.07910676060489528,"1":0.09785708043441278,"2":-0.1268295650621572,"3":-0.056363446558464814,"4":-0.22518907707057803,"5":0.12414488647636526,"6":0.11498687044678604,"7":0.05158837418713948,"8":0.07317399806443049,"9":0.005664778996261131,"10":0.14133467062340246,"11":-0.12349232094711465,"12":-0.015687969963932687,"13":0.09094746325365963,"14":-0.0024276697307979,"15":0.22167999518691564,"16":-0.02635246510299507,"17":-0.1304331555006397,"18":-0.10993875813891352,"19":0.033873649799732036,"20":0.029099018933084444,"21":0.10455215486034707,"22":0.05869203110345855,"23":-0.003927139770217089,"24":0.03200452227797372,"25":0.28983752201305213,"26":0.037082893994296984,"27":-0.001906007878181709,"28":0.17221553374157036,"29":-0.0001615426439413135,"30":0.054595890764829756,"31":0.20033311542535664,"32":0.09448348714551542,"33":-0.03268467338002282,"34":-0.0042044168090975605,"35":-0.008135236367283246,"36":0.018959207598708422,"37":0.06589547795526109,"38":0.0039059020488483656,"39":-0.023223093629198537,"40":-0.10828478078949194,"41":0.031153309674110473,"42":0.23456968060287783,"43":-0.04838442203372612,"44":0.10259224037452049,"45":0.2116467655082727,"46":0.08093872108215322,"47":-0.03247108313620053,"48":0.07828124544754644,"49":0.10470931291018967,"50":0.046902694595771295,"51":0.12218872755709029,"52":0.0024385006385577975,"53":0.04135547162125038,"54":0.10982930463023695,"55":0.12013589248590022,"56":-0.04170375517632406,"57":-0.24636848460198504,"58":0.15095797513717543,"59":-0.034299753811584406,"60":0.051251891564173556,"61":0.04065388077915132,"62":0.2002342366386324,"63":0.0657165378053257,"64":-0.2489194318546323,"65":0.014799888616494047,"66":0.18523333414706106,"67":0.10551038191394402,"68":-0.03152222775783907,"69":0.12270076225615752,"70":0.01792814569441003,"71":-0.12496822202816274,"72":-0.002536819352955487,"73":0.13712947845711634,"74":0.13079382091491168,"75":-0.04046048225990135,"76":-0.09826275403173207,"77":-0.05242239896015559,"78":-0.08549462184827053,"79":-0.027390035788808435,"80":0.20508658170131283,"81":-0.16883842438237376,"82":-0.0737804083861559,"83":0.23148424283764804,"84":0.022689863672927822,"85":0.014645640998782477,"86":-0.1410554709581265,"87":0.24582467320571683,"88":0.10561846735959347,"89":-0.1350250802791138,"90":0.17855357482082776,"91":0.05387685515933648,"92":0.01383072022424789,"93":-0.0010510421797963127,"94":0.18754181776925635,"95":0.20713944135936999,"96":0.09871158434291614,"97":0.05370104701353286,"98":0.09805545289803827,"99":-0.11539824069386571,"100":0.034645555441603255,"101":0.1309125050307101,"102":0.0777466174932022,"103":0.09275895094695424,"104":0.10164171078317716,"105":0.08748753673405024,"106":-0.11761259749975596,"107":0.17633630324636246,"108":0.08430441030382925,"109":0.15609911447619543,"110":-0.04203152226978542,"111":-0.014573271394485934,"112":0.12053319525103683,"113":-0.037199095307019155,"114":0.14216451722948134,"115":0.030686757173273967,"116":-0.04153885508885277,"117":-0.11358806643982078,"118":-0.008412706181247778,"119":0.07252479031299884,"120":-0.07605673745294263,"121":-0.11458485296623028,"122":0.06101391212030381,"123":-0.12196215918048144,"124":0.0016006746187031318,"125":0.15613051827377014,"126":0.0062179246599131455,"127":-0.009339448604904427,"128":-0.0673171316772813,"129":0.15621645999109862,"130":-0.05387390862544972,"131":-0.05394240590509441,"132":0.07237564697645708,"133":0.21210877856114543,"134":-0.009947867603435433,"135":-0.17160187633028232,"136":-0.040010883006115994,"137":-0.049398419213291266,"138":0.07669831305856982,"139":0.007128865685420491,"140":0.22781953498311663,"141":-0.10277801661823532,"142":-0.15032712862774691,"143":-0.10813262650596445,"144":-0.07352959630593714,"145":0.112128971369394,"146":0.0509445058271792,"147":-0.14707683299608199,"148":-0.11900435366502556,"149":0.015608753855566721,"150":0.03916433999160613,"151":-0.08056969975881316,"152":0.07966146911307298,"153":0.14090341078984295,"154":0.020831296495930886,"155":-0.1337743113237497,"156":-0.13726538665433258,"157":0.14451287275099012,"158":-0.024180065733180413,"159":0.07719035526272906,"160":0.16574579188516023,"161":0.10910951696682417,"162":-0.019284387386153096,"163":-0.21209724166294916,"164":-0.16943606328649063,"165":-0.08168339490832957,"166":-0.034902664840083926,"167":0.14248534502887966,"168":0.06093122685056233,"169":-0.012291223406064816,"170":-0.04803612560629069,"171":0.06727288351968133,"172":-0.14405294991123074,"173":0.05613531041262745,"174":-0.019852218928534237,"175":0.2243175337450135,"176":0.059464127973127,"177":-0.07135278757846257,"178":-0.2603983408397515,"179":-0.09613054498916397,"180":-0.02728051555180034,"181":-0.010656158497557206,"182":0.2224914050514558,"183":0.11443970802890252,"184":0.10467989613236665,"185":-0.23073044683910857,"186":-0.19522653409881616,"187":-0.15613436012096824,"188":0.07762677104399732,"189":0.030165186862116354,"190":0.015422303852845709,"191":0.19917906410988975,"192":-0.08400599345674462,"193":-0.1568212886876018,"194":-0.13057858776169964,"195":-0.010763735713692423,"196":0.10350185955623054,"197":-0.11548217411177444,"198":0.32141738983003476,"199":-0.2235222801146052,"200":-0.23065826920059257,"201":-0.1270913615792692,"202":0.11944163729280663,"203":0.13032959915638145,"204":-0.0804252854362821,"205":0.11695402463088969,"206":0.1501963893790346,"207":-0.16882608025458426,"208":-0.023919998290113313,"209":0.03729079745156872,"210":-0.10942106246169966,"211":-0.22267636744235655,"212":0.23510183904685333,"213":0.06727409718123752,"214":-0.2615940691414969,"215":0.035259453971886734,"216":0.16883559834978965,"217":-0.09875246321184014,"218":-0.16319196059797453,"219":0.34662858210112485,"220":-0.11693274877989132,"221":-0.19069817301404518,"222":-0.06918869457528304,"223":0.04126453790392445,"224":0.06353024477536275,"225":-0.03923637122029267,"226":-0.001824788200000444,"227":-0.017520440824063996,"228":-0.3777942009878645,"229":-0.05912035953128753,"230":0.10788723249938426,"231":0.05332712477549255,"232":-0.08807632365701154,"233":0.1393015102314969,"234":0.03220517935304053,"235":-0.3792927767027736,"236":-0.24339768105093063,"237":-0.02566618106404357,"238":-0.0716877163244633,"239":0.03664883245670431,"240":-0.11134534164013347,"241":-0.029722351433300324,"242":-0.49367459384551104,"243":-0.13202254986443637,"244":-0.06869449109821682,"245":0.03586709014074906,"246":-0.0282793138789442,"247":-0.14479718203496628,"248":-0.06897033054817368,"249":-0.372166523906304,"250":-0.15296845068401754,"251":0.1601328680729472,"252":-0.04714171982179974,"253":0.04821315964072785,"254":-0.04363227847537425,"255":-0.26725346777674863,"256":-0.45605467676522304,"257":-0.1356426017123043,"258":0.0003210871832953693,"259":-0.2798488678297604,"260":0.0354605886123967,"261":-0.09313968473068551,"262":-0.11429396313930001,"263":-0.5366810702238196,"264":-0.0881608852695936,"265":-0.16239638740858067,"266":-0.20783083114628778,"267":0.09160935988789337,"268":-0.26089887606229856,"269":0.149655148858188,"270":-0.4777384571656674,"271":-0.049158525125363756,"272":-0.07394589403869,"273":-0.2534695593038072,"274":-0.26963150113872547,"275":-0.1607497198320558,"276":-0.0010994589365637786,"277":-0.6751316812539037,"278":-0.21021627864282066,"279":-0.026300950336925318,"280":-0.18561420173062215,"281":-0.15970172091719342,"282":-0.2793514891776836,"283":0.15140242360836753,"284":-0.5797609572627083,"285":-0.18345283217469519,"286":0.12243640998509542,"287":-0.0718215780969184,"288":-0.04528541905990942,"289":-0.42576861608077887,"290":-0.06929054240326198,"291":-0.6362096935521572,"292":-0.22296700487624055,"293":0.05750032435608395,"294":-0.07963016663317234,"295":-0.1199084081042995,"296":-0.49527580538108607,"297":0.3417352847633016,"298":-0.4700000079013997,"299":-0.3531393441108479,"300":0.0680163566879717,"301":-0.1652341507694186,"302":0.10836195443696109,"303":-0.6449456902807057,"304":0.4405818099088242,"305":-0.6275544037778067,"306":-0.18650414156356596,"307":-0.056958497147191006,"308":-0.1624551700375994,"309":-0.15054728036374707,"310":-0.5518848872283375,"311":0.6434708899237268,"312":-0.5300918014969872,"313":-0.041119280151242735,"314":-0.09386020201573572,"315":-0.18307650267623135,"316":-0.14443266208636293,"317":-0.6807172607942735,"318":0.5102732094849742,"319":-0.4627232647194848,"320":-0.04027038693563439,"321":-0.06728660881108223,"322":-0.2318396914255536,"323":-0.03365930053021639,"324":-0.6085915759882577,"325":0.2134433762350934,"326":-0.5005490724588724,"327":0.013493089394065063,"328":0.03588924814047917,"329":-0.23043016602719604,"330":-0.09787796362768984,"331":-0.6801072159483937,"332":0.6477555150095881,"333":-0.09035523121172613,"334":0.013007753298213619,"335":-0.051777925733127415,"336":-0.12981005720392352,"337":-0.13104908948463537,"338":-0.47351268879045827,"339":0.5695165079079341,"340":0.048645085201655114,"341":0.12795076323075089,"342":-0.013930971704266428,"343":-0.1528195849965221,"344":0.1700176409140254,"345":-0.46339086528697654,"346":0.5644563364231596,